\data\
ngram 1=14786
ngram 2=28089
ngram 3=20839
ngram 4=10825
ngram 5=1423
ngram 6=471

\1-grams:
-5.0726023	<unk>	0
0	<s>	-0.7982668
-1.3989887	</s>	0
-3.7536232	barisan	-0.35020816
-3.9123564	nasional	-0.042143058
-3.0792398	kerajaan	-0.2501506
-1.7759571	yang	-0.4974016
-4.930209	berjiwa	0
-3.203244	rakyat	-0.24728224
-2.6298714	hendak	-0.33294928
-3.006039	dapat	-0.16030419
-3.8003707	sokongan	-0.045570273
-2.3034334	mereka	-0.39558676
-3.293039	pilihan	-0.42092583
-3.8815389	raya	-0.12367658
-3.093543	datang	-0.26593593
-3.1288717	beliau	-0.15982641
-3.026318	berkata	-0.16798393
-3.945529	lembaga	-0.07668831
-4.297782	tabung	-0.24703738
-3.8003707	haji	-0.09321261
-2.5693035	akan	-0.19672352
-4.7417946	merangka	0
-4.930209	draf	0
-4.226407	pengumuman	-0.05716341
-4.4897385	pembayaran	-0.12300794
-4.7417946	dividen	0
-2.9538302	selepas	-0.15972506
-3.3592215	mendapat	-0.11973572
-4.226407	kelulusan	-0.09710391
-1.884296	itu	-0.5299676
-3.9814463	musim	-0.037631344
-2.2752867	ini	-0.45725548
-2.975442	sekali	-0.3755172
-4.930209	gus	-0.008601306
-4.063646	layak	-0.07667966
-2.2123146	ke	-0.53555346
-4.4897385	saingan	-0.06746736
-4.1114273	liga	-0.04379444
-4.930209	super	-0.04956567
-3.6209881	depan	-0.1509157
-2.2819672	.	-2.618935
-2.1274989	dia	-0.47340742
-3.2706087	kelihatan	-0.12554154
-2.2034845	tidak	-0.4815567
-3.637631	kisah	-0.08750844
-2.0186572	dengan	-0.3831541
-2.6055665	apa	-0.55064106
-2.90723	sedang	-0.18252349
-3.242397	berlaku	-0.30990535
-3.1341615	suara	-0.26557687
-3.2095294	pak	-0.38511956
-4.3832397	majid	0
-3.9123564	nada	-0.18121156
-3.945529	kesal	-0.25632846
-2.722388	seorang	-0.44273794
-2.5358367	lelaki	-0.61355174
-3.9123564	lengkap	-0.04300876
-3.5745754	memakai	-0.14282118
-4.165123	kot	-0.06292228
-4.4897385	makmal	0
-3.2223794	melangkah	-0.5833873
-2.8113298	masuk	-0.48427135
-3.945529	biliknya	-0.24529037
-3.560145	soal	-0.07382006
-3.8815389	dato	-0.17595863
-4.297782	ehsan	-0.079676904
-3.4944131	membaca	-0.13120712
-3.4164503	surat	-0.26691332
-4.020604	khabar	-0.06626669
-1.8517178	di	-0.6919003
-3.3503757	ruang	-0.25727138
-4.297782	tamu	-0.053099617
-2.9468591	mahu	-0.11872021
-3.4823813	melepaskan	-0.18560235
-4.4897385	sinar	0
-3.691766	harapan	-0.1295465
-3.1395168	pergi	-0.26523334
-2.4431338	lagi	-0.3321777
-3.0347025	mula	-0.13209882
-4.930209	meragui	0
-4.3832397	destinasi	-0.04959277
-3.3965242	kampung	-0.19086403
-3.8003707	bukit	-0.112455055
-4.930209	keramat	0
-4.930209	ditujui	0
-3.1970484	kawan	-0.34559846
-3.2633822	mana	-0.2303932
-2.840102	satu	-0.1681754
-3.4063728	ya	-0.2900468
-3.4823813	terlebih	-0.62906414
-3.3774724	dahulu	-0.25679082
-2.278243	dalam	-0.3174679
-2.9265926	rumah	-0.3491068
-2.4377468	saya	-0.35443908
-3.448166	yakin	-0.20274343
-3.8257778	jawatankuasa	-0.11659206
-3.6549368	baharu	-0.11218464
-4.3832397	terdiri	-0.31927598
-2.784346	daripada	-0.109821014
-3.6549368	enam	-0.075045876
-4.020604	pakar	-0.032424897
-4.7417946	berkelayakan	0
-3.2706087	tinggi	-0.1870038
-4.020604	menjalankan	-0.20859507
-3.8003707	tugas	-0.13673022
-3.8815389	bebas	-0.15917724
-4.930209	Number	-0.04956567
-4.930209	sequence	-0.10552585
-3.4592743	is	-0.12645482
-4.930209	T9281653K	0
-2.4900253	and	-0.039937586
-4.930209	date	-0.10552585
-3.7763684	of	-0.045846764
-4.930209	birth	-0.10552585
-4.930209	22nd	0
-4.7417946	October	0
-4.930209	1988.	0
-2.6829867	lalu	-0.25872856
-2.2135906	aku	-0.4005535
-3.448166	menangis	-0.29126793
-3.945529	sekuat	-0.34852389
-2.7891293	hati	-0.3400844
-4.165123	berkulit	-0.16437633
-3.7320104	gelap	-0.13656625
-3.3417065	berdiri	-0.3421491
-3.5895019	sebelah	-0.11453309
-2.7634513	gadis	-0.6393679
-4.930209	kadazan	0
-3.1288717	kecil	-0.3143072
-3.9814463	comel	-0.12297056
-3.3965242	putih	-0.22862959
-3.9814463	bagaimanapun	-0.024716606
-3.0180924	jika	-0.17415845
-2.8482914	wanita	-0.5321069
-3.5745754	sedar	-0.15952703
-4.7417946	haknya	0
-2.8709164	boleh	-0.17126235
-4.4897385	berkeras	0
-3.9814463	mahukan	-0.032424897
-4.165123	pembedahan	0
-2.894785	terus	-0.22303364
-3.3248708	bangun	-0.39301276
-3.0519733	duduk	-0.3732987
-4.7417946	bersila	-0.10558751
-4.7417946	birai	-0.24538556
-3.6049597	katil	-0.24833979
-4.226407	ihsan	0
-4.020604	berpusing	-0.099913366
-3.9123564	mengatur	-0.5476538
-3.19094	langkah	-0.18048264
-2.990471	kembali	-0.2241596
-4.930209	dangau	0
-4.6311436	mengetap	-0.24538556
-3.637631	bibir	-0.1352365
-2.6736708	sebelum	-0.29821482
-3.0519733	menuju	-1.1363635
-3.6729612	arah	-0.06328657
-2.4642365	sudah	-0.31958708
-3.5745754	berapa	-0.19839326
-3.0608733	sebuah	-0.24627939
-3.2356215	bilik	-0.26406527
-4.165123	kelam	-0.17092603
-1.8559042	dan	-0.24184963
-4.297782	suram	-0.20192742
-3.2095294	mencari	-0.19446091
-3.7536232	cincin	-0.20134191
-3.560145	kedai	-0.15479289
-3.8815389	emas	-0.18483153
-3.945529	terletak	-0.2538914
-3.1341615	jalan	-0.26048368
-4.165123	tunku	-0.2360308
-3.6209881	abdul	-0.19940756
-4.3832397	rahman	-0.008601306
-3.1504295	cuba	-0.1486054
-4.4897385	memancing	-0.06746736
-3.8527641	minat	-0.08030387
-3.9814463	temannya	-0.3509434
-4.4897385	berasal	-0.22236599
-2.409758	dari	-0.28616363
-3.560145	kelantan	-0.18122452
-2.6451352	pun	-0.3947986
-3.8527641	berkahwin	-0.1871715
-3.3592215	mempunyai	-0.08872972
-3.2779577	lima	-0.22001277
-2.623256	orang	-0.40266445
-2.6681757	anak	-0.4702806
-4.6311436	menurun	0
-3.203244	jauh	-0.30870372
-3.4267669	luar	-0.20426
-4.063646	jendela	-0.10441959
-4.020604	baginya	-0.10466523
-4.297782	keamanan	-0.06746736
-4.4897385	keindahan	-0.10558751
-3.103347	tempat	-0.26382375
-2.9468591	adalah	-0.11130617
-3.9123564	bukti	-0.04050429
-4.4897385	kewujudan	-0.10558751
-3.9123564	tuhan	-0.20985526
-2.8622932	rasa	-0.2726129
-4.3832397	hiba	-0.16785611
-2.602426	kerana	-0.20856932
-3.2159069	saat	-0.34338528
-3.6049597	begini	-0.3000829
-3.19094	ayah	-0.22591376
-2.7567039	masih	-0.28459895
-3.470674	mampu	-0.09084221
-3.3592215	menunjukkan	-0.10222567
-4.7417946	kasihnya	0
-4.4897385	terhadapku	-0.22236599
-3.6729612	membeli	-0.1074678
-3.3868937	barang	-0.20636344
-4.020604	keperluan	0
-2.9866645	sama	-0.27170292
-3.2095294	pulang	-0.48052788
-3.637631	masing	-0.34531933
-2.8164215	air	-0.44114733
-2.9103975	mata	-0.22386014
-4.226407	bergenang	-0.1940139
-4.6311436	tubir	-0.16987364
-3.0887227	memang	-0.24538887
-3.5895019	pelik	-0.19611464
-3.2854328	belum	-0.17751157
-3.448166	pernah	-0.09148974
-3.5895019	lakukan	-0.2103577
-4.063646	melakukannya	-0.26783606
-3.2633822	cakap	-0.34274077
-3.256274	apa-apa	-0.29059803
-3.2854328	betul	-0.23642679
-3.8527641	kau	-0.07769383
-3.2633822	tiba-tiba	-0.19155616
-2.9299054	saja	-0.27973664
-2.7749352	semua	-0.28037733
-3.3417065	suka	-0.13432251
-2.8917286	sangat	-0.21653822
-3.4373345	tengok	-0.17078182
-3.4373345	bulan	-0.20212564
-4.297782	I	-0.11417895
-4.930209	can't	-0.10552585
-4.930209	eat	-0.10552585
-4.6311436	all	-0.024076093
-4.6311436	these	-0.032407492
-4.930209	sweet	0
-4.930209	sour	0
-4.930209	deep	0
-4.6311436	fried	0
-4.930209	fish.	0
-4.063646	letakkan	-0.18279885
-3.0887227	muka	-0.20152828
-3.6049597	johan	-0.11227313
-3.0984173	atas	-0.17647623
-3.4944131	kerusi	-0.2417964
-4.930209	rodanya	0
-2.9573584	memandang	-0.35916013
-3.1731138	wajah	-0.25864944
-3.945529	sekilas	-0.12241838
-2.1506424	untuk	-0.3077284
-4.3832397	mengelakkan	-0.061888725
-3.242397	masalah	-0.20425329
-3.300781	seseorang	-0.26642013
-3.3868937	berhenti	-0.24386808
-4.063646	merokok	-0.082316354
-2.728619	atau	-0.14388965
-4.1114273	mengurangkan	-0.052399993
-4.7417946	senak	-0.24538556
-3.6049597	perut	-0.17433318
-3.256274	menahan	-0.27405554
-3.4267669	ketawa	-0.26472774
-2.897863	melihat	-0.27227283
-4.226407	gelagat	-0.11129076
-3.6049597	para	-0.09355225
-3.1673307	pelajar	-0.2735631
-3.9814463	terlibat	-0.19178972
-4.6311436	kesah	0
-3.0140374	sebab	-0.26789793
-3.8815389	pertandingan	-0.11196601
-2.9503307	kalau	-0.27637267
-4.930209	cantiknya	0
-3.448166	ambil	-0.11999808
-4.3832397	borang	0
-4.7417946	penyertaan	0
-4.4897385	ratu	-0.456819
-3.519525	cantik	-0.22107612
-3.6729612	rindu	-0.20376949
-2.6087296	juga	-0.23395029
-3.5067875	ummi	-0.13661206
-3.4063728	dengar	-0.15663216
-2.6663592	ada	-0.30963466
-3.7763684	memanggil	-0.12564017
-3.0519733	tahu	-0.27986878
-3.1395168	matanya	-0.22453305
-3.5745754	selalu	-0.049486402
-3.8815389	singgah	-0.324128
-2.4303155	pada	-0.3014
-3.22895	agak	-0.12800431
-4.6311436	terdedah	0
-2.6848743	kita	-0.29631212
-3.945529	buka	-0.15577331
-3.3332071	kawasan	-0.23798998
-4.6311436	terpencil	-0.13653113
-3.560145	sukar	-0.21381435
-4.930209	dimajukan	0
-4.930209	teriak	0
-2.8856797	mak	-0.34933892
-4.6311436	munah	0
-2.894785	apabila	-0.16964239
-3.0608733	secara	-0.20905511
-3.256274	tiba	-0.28261387
-3.3417065	tubuh	-0.22021939
-4.3832397	tuanya	-0.12742753
-2.6265512	seperti	-0.28064528
-3.945529	tolak	-0.07668831
-3.0564005	sesuatu	-0.43124223
-4.063646	tahan	-0.07867361
-3.470674	harus	-0.044582117
-2.8241723	buat	-0.37921184
-3.4944131	kedua-dua	-0.27638435
-2.6829867	tersebut	-0.45525953
-3.2779577	terkejut	-0.4609177
-4.7417946	sergahan	0
-4.020604	hadi	-0.034403607
-3.256274	kena	-0.09821903
-4.6311436	untung	0
-3.3503757	cinta	-0.17394528
-4.1114273	berbalas	-0.039210834
-2.8651485	tapi	-0.21747753
-4.226407	mestilah	0
-4.226407	balasan	-0.13064848
-4.6311436	tulus	-0.14737844
-2.8062975	bukan	-0.30650997
-4.165123	main-main	-0.24703738
-4.3832397	mineral	-0.117261134
-4.3832397	dihulurkan	-0.10558751
-4.297782	faiz	0
-4.930209	disambutnya	0
-4.165123	menyangka	-0.069017656
-3.4823813	akhirnya	-0.108255446
-4.930209	tersejuk	0
-3.560145	bertemu	-0.24268842
-3.2159069	setelah	-0.12803657
-2.943415	beberapa	-0.30948085
-3.1184812	kali	-0.26629913
-3.8527641	memujuk	-0.14557397
-4.4897385	pengendali	0
-3.7536232	sementara	-0.09983883
-4.7417946	skuad	0
-4.165123	harimau	-0.10558751
-3.0347025	malaysia	-0.24680775
-3.4592743	muda	-0.25417647
-2.9645016	baru	-0.24176584
-2.8138683	sahaja	-0.27459273
-4.3832397	memberhentikan	-0.22990443
-2.9828913	kereta	-0.31786323
-3.8815389	pagar	-0.15108666
-3.945529	menghidupkan	-0.4139641
-3.9123564	enjin	-0.37257195
-3.8257778	menekan	-0.21376526
-4.4897385	pedal	-0.22236599
-3.6049597	minyak	-0.141389
-3.691766	bawah	-0.11616779
-4.297782	telapak	-0.26596794
-3.3332071	kaki	-0.20566666
-2.9135885	ibu	-0.29283375
-4.297782	berputus	-0.63291025
-4.4897385	asa	-0.025391793
-3.6549368	kuala	-0.54079604
-4.7417946	lumpur	-0.026841251
-3.9814463	perjuangan	-0.032424897
-2.7413561	bagi	-0.1742284
-4.7417946	kesederhanaan	0
-4.6311436	pembaharuan	0
-4.7417946	goyah	0
-3.242397	walaupun	-0.10176795
-3.293039	menerima	-0.08727216
-4.4897385	kritikan	0
-4.297782	sesetengah	-0.04959277
-3.691766	kumpulan	-0.061109487
-4.7417946	konservatif	-0.24538556
-4.226407	berhati-hati	-0.13236476
-4.165123	murah	-0.04379444
-3.8815389	talian	-0.10891276
-3.3248708	ramai	-0.18536179
-4.6311436	tertipu	0
-3.9123564	melibatkan	-0.037261136
-4.4897385	kerugian	0
-4.3832397	ribuan	0
-4.297782	ringgit	-0.011871229
-2.8374062	tanpa	-0.23122782
-3.7763684	memeluk	-0.10291317
-3.1504295	kamu	-0.1984898
-3.4592743	gembira	-0.25850868
-3.0653925	tiada	-0.24327923
-3.0100198	perkara	-0.46689117
-3.7320104	buruk	-0.10900048
-3.470674	sepanjang	-0.10445986
-2.777269	hari	-0.44297075
-3.6549368	perlahan-lahan	-0.22203118
-3.1504295	pintu	-0.46052217
-3.4823813	utama	-0.15389407
-4.165123	menduga	-0.039210834
-3.8527641	maksud	-0.11716985
-4.3832397	sebalik	-0.046828054
-3.6549368	panggilan	-0.32846898
-3.5067875	bagaikan	-0.1250675
-3.5895019	percaya	-0.1538055
-3.368251	kata-kata	-0.23951943
-3.1616235	doktor	-0.33357647
-4.226407	menenangkan	-0.14645645
-4.930209	Where	-0.10552585
-4.7417946	can	-0.10552585
-4.930209	find	-0.04956567
-3.5745754	a	-0.117753975
-4.930209	better	0
-4.930209	than	0
-4.930209	Musu?	0
-4.3832397	tuntutan	0
-3.1849163	pihak	-0.25147083
-4.930209	penculik	0
-4.297782	membentuk	-0.06746736
-3.2779577	segala	-0.14620943
-3.1395168	ingin	-0.13823591
-4.226407	kebaikan	-0.057147346
-2.994311	negara	-0.3189977
-3.945529	dilaksanakan	-0.17679952
-4.3832397	mengamati	-0.16006342
-4.3832397	segenap	-0.09250546
-3.5326474	kelas	-0.11080568
-4.226407	tersedar	-0.07668352
-3.4373345	ahli	-0.35013074
-3.7763684	dah	-0.062918775
-3.2095294	lama	-0.22166248
-4.930209	camping	0
-4.4897385	padahal	-0.008601306
-3.0564005	berada	-0.7668369
-4.165123	situ	-0.073465645
-3.6729612	betul-betul	-0.14605947
-4.297782	mintak	-0.24703738
-4.1114273	maaf	-0.13764425
-3.1184812	mendengar	-0.2952252
-3.2159069	nama	-0.22325525
-3.945529	dikenali	-0.058793526
-4.020604	meniti	-0.39845726
-4.3832397	perempuannya	-0.22848396
-3.945529	sekumpulan	-0.06806855
-3.7320104	kanak-kanak	-0.18994458
-4.6311436	bulatan	0
-4.7417946	berpegangan	-0.24538556
-3.0475907	tangan	-0.25774333
-4.020604	sesama	-0.5348132
-3.5461783	bergerak	-0.33593515
-4.6311436	mengelilingi	0
-3.1731138	perlu	-0.09735619
-3.6209881	lari	-0.13828617
-3.24928	mungkin	-0.16542487
-3.1504295	salah	-0.35530883
-3.1616235	baik	-0.24473257
-3.8815389	bumi	-0.11601204
-2.722388	macam	-0.5192223
-4.3832397	bernafas	-0.05716341
-3.8527641	apatah	-0.8507549
-3.470674	bercakap	-0.26762775
-3.7536232	timbalan	-0.46924156
-4.063646	pengerusi	-0.17398612
-4.020604	sofa	-0.20116852
-3.5067875	tak	-0.11745066
-2.6773732	engkau	-0.36826962
-3.637631	tu	-0.13962193
-3.7320104	ditahan	-0.12826894
-3.6549368	diambil	-0.107407
-3.5067875	tindakan	-0.1291524
-3.1731138	terhadap	-0.061021414
-2.5174427	katanya	-0.62875074
-3.8003707	bersiap	-0.2680612
-3.8257778	sedia	-0.15797427
-4.7417946	mengasah	0
-4.1114273	pisau	-0.039210834
-4.930209	toreh	0
-4.226407	menghela	-0.506357
-3.8003707	nafas	-0.21298325
-4.6311436	dalam-dalam	-0.13015045
-3.4823813	menoleh	-0.5783213
-3.7114222	kiri	-0.21662146
-3.8003707	kanan	-0.14967635
-3.242397	keadaan	-0.15807658
-4.7417946	sekelilingnya	-0.082316354
-3.6209881	dapur	-0.18419805
-4.226407	membancuh	-0.12300794
-3.7114222	kopi	-0.22327453
-3.6729612	diam	-0.19542165
-3.6549368	asyik	-0.044613272
-4.063646	berkata-kata	-0.2354066
-2.8428147	sendiri	-0.3993404
-4.7417946	hilangnya	0
-4.063646	nilai	0
-4.930209	disanjung	0
-2.7162452	oleh	-0.21645285
-2.9332435	dirinya	-0.35749647
-3.093543	selama	-0.4934511
-2.8566382	awak	-0.28222448
-4.6311436	hela	-0.10558751
-4.4897385	terbentang	-0.13015045
-4.4897385	potret	-0.105575174
-4.930209	berlukis	-0.10552585
-4.930209	pensil	-0.10552585
-3.4592743	hitam	-0.2600316
-3.7763684	menatap	-0.43058333
-4.063646	penulis	-0.06839683
-2.4948833	kepada	-0.24868368
-4.7417946	klasik	0
-3.7114222	iaitu	0
-4.020604	belah	-0.089366056
-3.4373345	tengah	-0.20237356
-4.7417946	berombak	0
-4.3832397	menguatkan	-0.082316354
-3.637631	alasan	-0.1381433
-3.4592743	tinggal	-0.27909186
-3.3417065	hilang	-0.2151862
-4.1114273	puluhan	-0.049587373
-3.3965242	manusia	-0.3063602
-4.020604	sama-sama	-0.08141912
-4.4897385	melintas	-0.10558751
-3.5067875	tatkala	-0.17989758
-3.637631	lampu	-0.19125074
-4.063646	isyarat	-0.029500488
-3.7536232	bertukar	-0.2301718
-3.9123564	hijau	-0.19357775
-4.6311436	berlima	0
-3.6049597	saling	-0.25000653
-3.9123564	berpandangan	-0.23443508
-3.8527641	idea	-0.16382566
-3.6549368	memulakan	-0.19730982
-3.4592743	perbualan	-0.22356366
-3.448166	entah	-0.3114083
-3.3592215	kenapa	-0.22662382
-3.7763684	hatiku	-0.19529034
-3.5461783	berat	-0.18907155
-4.3832397	pemergian	-0.06746736
-3.2854328	mama	-0.22806841
-3.637631	abah	-0.10498621
-3.5745754	punya	-0.057149857
-3.4267669	jawapan	-0.29884204
-4.4897385	syafiq	0
-2.737069	hanya	-0.2471037
-3.9814463	mengeluh	-0.21087746
-3.6729612	meneruskan	-0.14499414
-3.8003707	perjalanan	-0.10933485
-3.093543	balik	-0.25743064
-3.5326474	pejabat	-0.18158445
-3.448166	berlalu	-0.3732965
-3.3503757	badan	-0.16843127
-3.9814463	bertujuan	-0.114117324
-3.9123564	meningkatkan	-0.046513397
-3.945529	pelaksanaan	-0.034832526
-4.7417946	perundangan	0
-4.165123	peraturan	-0.039210834
-4.3832397	berkesan	0
-4.7417946	memerangi	0
-3.7114222	aktiviti	-0.057147346
-4.7417946	pengubahan	0
-3.9123564	wan	-0.05119079
-3.8815389	haram	-0.13236476
-4.165123	jaket	-0.04379444
-3.7114222	kulit	-0.043280564
-3.3965242	berwarna	-0.4902038
-4.4897385	menyarung	0
-3.4063728	tubuhnya	-0.28193033
-3.2159069	serta	-0.022476068
-4.226407	topi	-0.20192742
-4.7417946	keledar	-0.05716341
-2.975442	sampai	-0.3132553
-2.9609153	masa	-0.31988677
-3.4944131	keselamatan	-0.1322208
-4.930209	diperkemas	0
-3.8257778	menurut	-0.07934543
-3.7114222	kenyataan	-0.1707597
-3.300781	semalam	-0.1876915
-4.930209	Louis	0
-4.930209	Vuitton	0
-4.930209	Skin	0
-4.930209	Ink	0
-4.930209	Flora	0
-4.3832397	tergantung	-0.09250546
-4.020604	almari	-0.089931734
-3.691766	kasar	-0.17636493
-2.8566382	keluar	-0.43741915
-2.8510559	diri	-0.37390274
-4.930209	diseksa	0
-3.9123564	sedemikian	-0.20712776
-3.6729612	rupa	-0.16286927
-4.6311436	gara	-0.015901517
-3.0100198	makan	-0.30702418
-4.297782	durian	0
-3.470674	meja	-0.24213076
-3.8815389	hak	-0.07833266
-3.945529	campur	-0.17884333
-3.7763684	urusan	-0.054616403
-3.3332071	ku	-0.15755412
-4.226407	ayu	-0.04379444
-2.9299054	bersama	-0.21734789
-3.4164503	senyuman	-0.27752987
-3.7763684	terukir	-0.62956387
-4.6311436	payung	0
-3.3086634	merah	-0.28386787
-4.930209	jambu	-0.032407492
-4.4897385	atap	0
-2.765724	,	-0.15357147
-3.4823813	rakan	-0.17593375
-4.7417946	sepasukan	0
-3.8815389	mengadu	-0.1319719
-3.0745747	memberi	-0.27762806
-4.1114273	tumpuan	-0.0702794
-3.7763684	latihan	-0.08068252
-3.945529	perlawanan	-0.06806855
-4.226407	persahabatan	-0.18863189
-4.7417946	berderai	0
-3.0887227	kedua	-0.32551962
-3.093543	perempuan	-0.4467863
-4.1114273	bingkas	-0.35503915
-3.9123564	berani	-0.059638366
-4.7417946	gerakkan	0
-4.165123	dipegang	-0.09135663
-3.6729612	terbaik	-0.18215458
-3.470674	terpaksa	-0.063098826
-4.930209	redah	0
-4.165123	tini	0
-4.297782	menyampuk	-0.12300794
-2.803803	ketika	-0.3137949
-3.3965242	kuat	-0.19341499
-4.165123	membina	-0.055463504
-4.7417946	empayar	0
-3.2779577	syarikat	-0.18121742
-3.5895019	risau	-0.112404995
-3.3503757	ilham	-0.14906256
-4.1114273	bertahan	-0.16974275
-4.4897385	segi	-0.0055460744
-4.063646	mental	-0.032424897
-4.020604	menghadapi	-0.041375987
-3.3774724	soalan	-0.19063134
-3.8257778	seterusnya	-0.26183954
-4.1114273	sangka	-0.0908178
-3.0984173	jadi	-0.16649167
-4.930209	dicincang	0
-3.691766	putus	-0.15187119
-4.6311436	begitulah	-0.011871229
-3.4267669	hubungan	-0.2380739
-3.2095294	adik	-0.24280022
-4.3832397	beradik	-0.064864345
-4.3832397	maruah	0
-3.8003707	harga	-0.1648239
-3.470674	cuma	-0.08279642
-4.297782	ego	0
-2.90723	menjadi	-0.14816476
-4.6311436	tembok	0
-4.930209	pemisah	0
-3.0653925	antara	-0.37887657
-3.691766	berdua	-0.10888055
-3.4944131	perdana	-0.72415864
-3.4944131	menteri	-0.14938262
-4.3832397	meninjau	-0.019152923
-4.165123	kebajikan	-0.009470887
-3.3592215	anggota	-0.29222506
-4.7417946	menyuntik	0
-3.7114222	semangat	-0.167745
-4.226407	sidang	-0.37867528
-3.691766	media	-0.15645087
-3.4823813	negeri	-0.17065385
-3.7763684	kajian	-0.06207034
-2.8113298	lebih	-0.27236915
-4.1114273	tertarik	-0.268266
-3.3332071	membuatkan	-0.24029763
-4.3832397	menghayun	-0.16785611
-3.3086634	tangannya	-0.21022506
-4.6311436	menghentam	0
-3.8257778	tingkap	-0.14518803
-3.7114222	kaca	-0.3020849
-4.930209	terretak	0
-2.8062975	tadi	-0.3745133
-2.943415	abang	-0.21019676
-3.5461783	ikut	-0.05454
-4.3832397	kehendak	0
-4.165123	l	-0.07833266
-3.519525	berjaya	-0.06555368
-4.226407	menurunkan	0
-3.0519733	hatinya	-0.26813674
-3.9123564	bertambah	-0.04958975
-3.8003707	mengetahui	-0.16293412
-4.6311436	hamil	0
-4.4897385	tertera	-0.12742753
-3.470674	nombor	-0.2314984
-3.9814463	bernama	-0.06941554
-3.560145	berlari	-0.31205884
-3.8257778	am	-0.022908533
-3.1236453	lah	-0.2524029
-4.1114273	bergurau	-0.19435552
-3.5067875	cari	-0.1663214
-3.5067875	pasal	-0.1353446
-4.226407	lebih-lebih	-0.20192742
-4.063646	tamat	-0.12354132
-3.5461783	tempoh	-0.23395148
-4.7417946	latihannya	0
-3.6049597	minggu	-0.25904742
-3.7763684	hadapan	-0.083526105
-2.9609153	bila	-0.24440162
-3.7114222	televisyen	-0.21749324
-4.165123	mengurut	-0.085178465
-3.9123564	dadanya	-0.10050726
-3.4063728	akibat	-0.0513656
-4.930209	teriakan	0
-4.6311436	gadisnya	-0.105566986
-4.930209	Chinadao,	0
-4.930209	Imoni	0
-4.930209	Kulfi.	0
-4.297782	kuantan	-0.05716341
-4.020604	lepaskan	-0.11363016
-3.6729612	sesi	-0.05506174
-3.3332071	jawab	-0.13872178
-4.3832397	pembentangan	0
-4.020604	perkembangan	-0.029842898
-3.4944131	program	-0.0816538
-4.6311436	transformasi	-0.18397191
-3.7536232	ekonomi	-0.18711051
-3.6209881	separuh	-0.16159427
-3.3086634	pertama	-0.18683527
-3.3086634	tahun	-0.27019235
-3.300781	sebenarnya	-0.2093313
-4.6311436	spekulasi	0
-3.5895019	politik	-0.16908756
-3.3503757	hingga	-0.22712487
-3.006039	sekarang	-0.39590365
-4.020604	terengganu	-0.08265627
-3.7320104	gila	-0.22501653
-3.026318	namun	-0.12942223
-3.24928	tetap	-0.12438358
-4.930209	mengawalnya	0
-3.2356215	supaya	-0.16416015
-3.6049597	tenang	-0.21188508
-4.1114273	eh	-0.044106215
-3.3332071	jangan	-0.22059494
-4.7417946	menggatal	0
-3.5895019	tetamu	-0.4307515
-2.6645503	pula	-0.2966344
-3.242397	makanan	-0.2631515
-3.1184812	turut	-0.10139178
-4.3832397	disediakan	-0.20059787
-4.6311436	letaknya	0
-4.3832397	hantaran	-0.082316354
-4.6311436	dihias	0
-3.9123564	indah	-0.16437633
-3.5067875	sarah	-0.14479734
-3.945529	niat	-0.13575518
-4.020604	menipu	-0.032424897
-2.7544777	kami	-0.26286322
-4.165123	kemudiannya	-0.0678197
-3.560145	menolak	-0.084991924
-4.930209	pengusung	0
-4.063646	rawatan	-0.14757705
-4.7417946	dikhuatiri	0
-3.7536232	terjatuh	-0.23337467
-4.165123	persekitaran	0
-4.930209	didiami	0
-3.470674	masyarakat	-0.17241462
-4.297782	kotor	-0.11293409
-3.3592215	membuka	-0.28763744
-3.0887227	besar	-0.25886053
-3.9814463	sembilan	-0.02263432
-4.020604	menegaskan	-0.057147346
-3.4267669	umno	-0.17687184
-3.7536232	menyertai	-0.19435552
-3.6049597	p	-0.27647164
-4.6311436	h	-0.024088899
-3.560145	biasa	-0.15179881
-3.4592743	lapor	-0.6445638
-4.297782	membolehkan	0
-3.3166916	melakukan	-0.210473
-4.930209	rondaan	0
-4.063646	kediaman	-0.039210834
-3.103347	begitu	-0.20279202
-2.9503307	lain	-0.310461
-3.2095294	kemudian	-0.12201147
-4.020604	lori	-0.027641892
-3.6209881	dibuka	-0.18106464
-3.0653925	sehingga	-0.21265109
-3.5067875	bunyi	-0.17204195
-3.22895	terasa	-0.15430936
-4.7417946	terhentak	0
-3.7114222	pelanggan	-0.27808115
-3.8257778	minum	-0.14844728
-4.6311436	mahmud	0
-4.020604	mencelah	-0.20216489
-4.4897385	mendatar	-0.024076093
-4.165123	menganggukkan	-0.5079715
-3.5461783	kepalanya	-0.18824819
-3.4063728	tanda	-0.24066162
-3.9123564	bersetuju	-0.2642997
-3.7763684	perkahwinan	-0.12660716
-4.297782	layanan	-0.06746736
-3.691766	ingat	-0.13664256
-3.8527641	selagi	-0.14296804
-4.7417946	hayat	-0.019152923
-4.7417946	dikandung	0
-2.8013227	kata	-0.21229017
-3.9123564	malik	-0.12933087
-2.623256	sambil	-0.28133276
-4.297782	berjabat	-0.13498062
-4.4897385	fauzi	-0.082316354
-4.226407	akalnya	-0.04959277
-4.6311436	mentah-mentah	-0.10558751
-3.3332071	pelbagai	-0.13510437
-4.3832397	andaian	0
-3.4592743	bermain	-0.2903417
-3.8527641	fikirannya	-0.1672382
-4.930209	terpisat-pisat	0
-4.6311436	digosok	0
-4.930209	sel-sel	0
-3.9123564	otak	-0.09902788
-3.8257778	miliknya	-0.20044585
-4.6311436	mencerna	0
-2.923305	telah	-0.11299024
-4.4897385	hikmah	-0.22990443
-4.297782	tersembunyi	-0.0727043
-4.7417946	musibah	-0.24538556
-4.4897385	menimpa	-0.049587373
-3.5067875	sahabatnya	-0.7831758
-3.945529	taman	-0.13230027
-4.3832397	mini	-0.05716341
-3.6049597	manis	-0.21818335
-3.8003707	mengenali	-0.16214548
-4.226407	komunikasi	-0.29685122
-3.8003707	mesra	-0.20794015
-4.226407	seksi	-0.16006342
-4.930209	menggoda	0
-3.3166916	tersenyum	-0.3662527
-3.5745754	cik	-0.064014025
-3.8527641	biarlah	-0.13374281
-3.8815389	sihat	-0.10865959
-3.6049597	proses	-0.03338784
-4.1114273	aktif	0
-3.103347	mengambil	-0.29482877
-3.6049597	bahagian	-0.08123113
-3.6049597	berbuat	-0.4821428
-3.1849163	pasti	-0.23964792
-4.7417946	sengit	0
-4.7417946	pemberita	-0.08882207
-4.3832397	penamaan	-0.31927598
-3.6549368	calon	-0.1507264
-4.4897385	institut	0
-4.165123	kemahiran	-0.04959277
-4.226407	belia	-0.04959277
-4.226407	kejayaan	-0.04959277
-4.020604	menyaksikan	0
-3.8815389	melaka	-0.11374051
-4.4897385	united	-0.22236599
-4.930209	kendali	0
-4.6311436	kendalian	0
-3.7320104	mat	-0.056627933
-4.6311436	zain	0
-4.7417946	aris	0
-3.8257778	sini	-0.10406142
-3.8527641	berisi	-0.11216631
-3.4823813	pakaian	-0.17188507
-4.226407	menghala	-0.46540403
-4.165123	perhentian	-0.29777634
-3.6729612	teksi	-0.27709118
-4.4897385	seberang	-0.16785611
-3.4944131	serba	-0.49907887
-3.0887227	sedikit	-0.16397032
-3.1236453	tentang	-0.13788137
-4.297782	perbuatannya	-0.11293409
-4.297782	diketahui	-0.035496276
-3.3332071	suami	-0.28175482
-3.470674	terbabit	-0.25183272
-3.945529	amaran	-0.029066093
-3.293039	mangsa	-0.16047125
-4.6311436	menjauhi	0
-3.2779577	isterinya	-0.44644597
-3.3086634	tuan	-0.27768317
-3.9123564	ismail	-0.030322595
-4.1114273	penjelasan	-0.061888725
-3.6549368	jari	-0.18842408
-4.930209	telunjuknya	-0.04956567
-3.560145	bangunan	-0.22123659
-4.7417946	diperbuat	-0.24538556
-4.063646	terfikir	-0.101325
-3.519525	guru	-0.20509261
-3.1673307	datuk	-0.33009854
-4.1114273	nik	-0.10558065
-4.3832397	aziz	-0.010536068
-4.930209	disamakan	0
-4.063646	haiwan	-0.07586843
-4.6311436	disiarkan	0
-4.226407	internet	-0.04379444
-3.3965242	keputusan	-0.21169269
-3.6049597	berfikir	-0.15549077
-3.4592743	panjang	-0.20778634
-4.1114273	balasnya	-0.12286745
-3.7114222	tegas	-0.14596103
-3.0984173	tiga	-0.25357997
-3.7114222	sana	-0.20166463
-3.3086634	majlis	-0.15827037
-4.930209	cukur	0
-4.930209	jambul	0
-3.9814463	diadakan	-0.061888725
-4.6311436	memeriahkan	-0.14737844
-3.6209881	suasana	-0.095654994
-3.691766	cahaya	-0.23868886
-4.226407	matahari	-0.14401187
-3.945529	menyentuh	-0.02263432
-3.2854328	nampak	-0.14301848
-4.3832397	perbezaan	0
-4.063646	umur	0
-4.020604	faktor	-0.06839683
-3.6729612	takkan	-0.09827281
-4.6311436	berwajah	0
-4.7417946	komersial	0
-4.930209	dicemburukan	0
-4.020604	minah	-0.14513165
-4.930209	ketak	-0.024076093
-4.297782	bertenang	-0.13064848
-3.691766	sekejap	-0.12930351
-4.930209	turutan	0
-4.1114273	lubang	-0.06746736
-3.203244	encik	-0.24906944
-3.9123564	amir	-0.102203526
-3.4592743	jam	-0.25287688
-4.6311436	pergelangan	-0.105566986
-4.165123	rasakan	-0.10157098
-3.945529	betapa	-0.123363495
-4.930209	payahnya	0
-4.4897385	mengayuh	-0.082316354
-4.930209	beca	0
-3.8527641	haris	-0.08094176
-3.560145	meletakkan	-0.0882112
-4.1114273	bungkusan	-0.10558748
-3.4267669	nasi	-0.3701214
-4.297782	lemak	-0.040132366
-4.226407	tulis	-0.017376414
-3.4063728	berasa	-0.14544255
-3.3248708	bahawa	-0.18196256
-3.8257778	amanah	-0.10975115
-4.930209	tertunai	-0.10552585
-3.3592215	kurang	-0.18079454
-4.930209	ukuran	0
-4.7417946	pertiga	0
-4.7417946	bahtera	0
-4.7417946	naiki	0
-3.24928	ni	-0.3420843
-4.4897385	merasmikan	-0.009470887
-4.3832397	kursus	0
-3.8527641	antarabangsa	-0.14757705
-3.9123564	pengurusan	-0.04050429
-4.930209	kecerdasan	0
-4.930209	epidemiologi	0
-4.4897385	kelima	0
-3.7114222	kesihatan	-0.05491082
-4.226407	tegak	-0.10985272
-4.4897385	usai	-0.0062909294
-3.6049597	solat	-0.28822774
-4.020604	terbaring	-0.3559455
-4.297782	empuk	-0.2511497
-3.8257778	pendek	-0.17595863
-4.7417946	dicalonkan	0
-2.8767614	sebagai	-0.14621632
-4.297782	pengganti	-0.13093597
-4.4897385	terkilan	0
-3.6049597	lantas	-0.08679866
-4.4897385	capai	-0.05716341
-3.256274	siapa	-0.2890388
-4.930209	pengirimnya	0
-4.020604	berterus	-0.6616987
-3.8003707	terang	-0.053500388
-4.6311436	tinah	-0.14737844
-4.063646	melelapkan	-0.6616987
-4.4897385	terjaga	-0.10558751
-3.470674	dilakukan	-0.20702375
-3.470674	minta	-0.22537506
-3.448166	abangnya	-0.3561281
-3.9814463	ceria	-0.30702722
-3.519525	sentiasa	-0.08585525
-3.8257778	positif	-0.100269735
-3.945529	menonton	-0.27070498
-4.297782	wayang	-0.05716341
-4.930209	boling	0
-3.560145	pusat	-0.12142303
-3.5895019	cepat	-0.14009473
-3.7536232	berpaling	-0.32069492
-4.3832397	siti	0
-3.22895	turun	-0.387501
-3.8527641	halaman	-0.18763947
-3.5326474	sempat	-0.13319756
-4.6311436	dihabiskan	0
-4.165123	liyana	0
-4.165123	meluru	-0.38066262
-4.063646	pasar	-0.09318111
-4.165123	klang	-0.12921402
-3.7114222	puas	-0.19890293
-4.7417946	terbuku	-0.10558751
-4.4897385	lubuk	-0.16987364
-4.930209	meleraikan	0
-4.297782	melanda	-0.12297056
-4.6311436	benaknya	-0.082316354
-3.0389564	kini	-0.20852502
-3.8815389	tingkah	-0.44010404
-4.297782	laku	-0.04435735
-3.9814463	bukanlah	-0.06608334
-3.1616235	hidup	-0.25016892
-4.7417946	menyewakan	0
-3.945529	basikal	-0.17909904
-4.3832397	tangkap	-0.015901517
-3.945529	basah	-0.25056735
-4.226407	duduknya	-0.092892125
-4.7417946	bibah	0
-3.8815389	tau	-0.12969165
-4.1114273	muhammad	-0.049136277
-4.063646	menangkap	-0.054395158
-3.7320104	kelibat	-0.08813185
-2.777269	dua	-0.34913117
-3.256274	berjalan	-0.4326511
-3.8815389	kira	-0.08818171
-3.7763684	siang	-0.32306865
-3.0389564	malam	-0.42983222
-4.4897385	memanglah	0
-3.6209881	malas	-0.2910722
-3.1731138	si	-0.18045782
-4.4897385	penjual	-0.024076093
-3.8815389	kek	-0.16633317
-4.020604	ahmad	-0.042144254
-4.063646	kaunter	-0.11679753
-4.297782	pertolongan	-0.12300794
-3.4267669	farid	-0.20258453
-3.6729612	kahwin	-0.16177912
-3.1395168	perlahan	-0.3696069
-4.063646	hidung	-0.089931734
-4.6311436	kembang	-0.10558751
-4.7417946	kempis	0
-3.2633822	sebaik	-0.39903194
-3.519525	balas	-0.11105885
-4.4897385	ayahku	0
-3.7320104	tepat	-0.18320255
-3.5895019	kehilangan	-0.1104889
-3.1083333	banyak	-0.15876797
-3.448166	darah	-0.24175766
-4.7417946	menghukum	0
-4.4897385	mengetepikan	0
-3.9814463	menyelesaikan	-0.17092603
-4.6311436	membelenggu	0
-3.2095294	parti	-0.23010457
-3.8815389	menghabiskan	-0.35013077
-4.063646	sisa	-0.1940139
-4.6311436	makanannya	0
-4.930209	pinggannya	0
-3.691766	s	-0.27350262
-3.7114222	m	-0.12114207
-3.7763684	k	-0.23906238
-4.3832397	waris	0
-4.226407	jaya	-0.085178465
-4.930209	masuki	0
-3.5067875	dewan	-0.27421504
-4.1114273	mawar	-0.0843758
-4.4897385	perpisahan	-0.082316354
-3.7763684	bermula	-0.25152558
-4.020604	sekeping	-0.12721045
-3.8257778	kad	-0.13560015
-4.6311436	akses	0
-3.945529	dikeluarkan	-0.1482564
-4.4897385	dompet	0
-4.7417946	paluan	0
-4.6311436	gendang	0
-3.8257778	memberitahu	-0.06641507
-3.9814463	kematian	-0.025743335
-4.7417946	alunan	-0.14737844
-3.9814463	berbeza	-0.15704826
-4.6311436	alhamdulillah	-0.013593933
-3.4823813	terima	-0.2703893
-3.5067875	kasih	-0.23519342
-3.9123564	sudi	-0.12244327
-3.3965242	isteri	-0.25314876
-3.5745754	beredar	-0.5051523
-4.930209	fotografi	0
-3.8257778	fesyen	-0.115573265
-3.7763684	bidang	-0.09109918
-4.7417946	bertakhta	-0.24538556
-4.930209	Phuk	0
-4.930209	Tak	0
-4.7417946	Chee	0
-4.7417946	Museum	-0.24538556
-3.4592743	hana	-0.19879737
-4.165123	melanjutkan	-0.25991935
-3.945529	pelajaran	-0.12527086
-3.8257778	peringkat	-0.031222327
-4.063646	pengajian	-0.22990443
-4.297782	demikian	-0.079786636
-4.1114273	kempen	-0.04379444
-4.063646	nak	-0.07061831
-4.226407	lapangan	-0.31398416
-3.9814463	terbang	-0.08883335
-3.1504295	dulu	-0.3094204
-3.9814463	berjanji	-0.24552935
-3.4164503	menunggu	-0.19110207
-3.8257778	azmi	-0.09459853
-4.297782	diperlukan	-0.04379444
-4.297782	sembuh	-0.11293409
-3.4373345	seketika	-0.28449488
-2.879714	semula	-0.296803
-3.368251	pandangan	-0.23758636
-3.5461783	amat	-0.08900235
-3.9814463	sara	-0.07668352
-4.3832397	merapatkan	0
-3.8815389	dinding	-0.20070836
-3.9123564	suruhanjaya	-0.29497
-4.3832397	pencegahan	-0.019152923
-4.297782	rasuah	-0.013593933
-4.930209	duanya	-0.009470887
-3.5745754	gagal	-0.057157267
-3.7763684	hadir	-0.20339546
-3.6049597	siasatan	-0.1893035
-3.9814463	dipanggil	-0.10814157
-4.6311436	jun	-0.14737844
-3.945529	janganlah	-0.087402955
-3.945529	berpuas	-0.73424935
-3.7114222	bicara	-0.14720923
-3.1970484	sebentar	-0.70891863
-3.6209881	hospital	-0.15466717
-4.930209	dimaksudkan	-0.032407522
-3.9123564	sabar	-0.123137124
-4.297782	terlewat	-0.10558751
-4.1114273	hasrat	-0.06839683
-3.519525	arwah	-0.20414323
-4.930209	datuknya	0
-3.7114222	seluruh	-0.08988575
-3.2779577	keluarga	-0.27952394
-3.9123564	berkumpul	-0.3701052
-4.165123	cucu	-0.04959277
-4.165123	berkali	-0.42312866
-4.3832397	menyuarakan	0
-3.945529	menjual	0
-2.8374062	tetapi	-0.22671074
-3.4164503	ayahnya	-0.25907886
-4.6311436	bertegas	0
-4.297782	melihatkan	0
-3.4373345	memberikan	-0.08693763
-3.4592743	sebarang	-0.095764965
-3.7114222	reaksi	-0.084479265
-3.5895019	bersuara	-0.30150965
-4.297782	segala-galanya	-0.05716341
-4.7417946	usang	-0.024076093
-4.4897385	berkuasa	-0.037251096
-3.7536232	mendapati	-0.07623262
-4.7417946	punyai	0
-4.226407	rekod	-0.04959277
-3.7536232	jenayah	-0.061109487
-4.7417946	lampau	0
-3.1731138	semakin	-0.1682163
-4.063646	resah	-0.072698936
-4.3832397	dibeli	-0.086099476
-3.0699594	ia	-0.15855613
-4.297782	kaitan	-0.10558751
-3.9123564	banjir	-0.22459549
-4.4897385	gelombang	0
-4.3832397	dihubungi	-0.11069832
-3.8257778	serentak	-0.1380433
-4.4897385	mendengus	0
-3.637631	geram	-0.18145297
-4.6311436	menzahirkan	0
-4.3832397	kekecewaan	-0.14737844
-4.165123	gerai	-0.039210834
-4.165123	udang	-0.04379444
-4.6311436	kara	0
-4.930209	sisa-sisa	0
-3.6729612	terdapat	-0.14024307
-3.093543	setiap	-0.30635932
-3.945529	sudut	-0.10734521
-3.9814463	lantai	-0.12512115
-4.6311436	terperanjat	0
-3.7114222	bertindak	-0.13069391
-3.8003707	berharap	-0.13054393
-4.930209	filipina	0
-3.560145	mengikut	-0.05377664
-4.226407	peruntukan	0
-3.7536232	undang	-0.32005325
-3.448166	ujar	-0.14268902
-4.297782	andy	-0.06839683
-4.7417946	disuruh	-0.04956567
-4.6311436	lan	-0.33188027
-3.5745754	sahabat	-0.27469292
-4.930209	toi	0
-4.930209	vokalis	0
-3.9123564	sah	-0.065144315
-3.945529	rasmi	0
-3.9814463	budak-budak	-0.14913583
-3.093543	nanti	-0.3010997
-3.7763684	persoalan	-0.26243648
-3.8815389	timbul	-0.17783415
-4.7417946	benak	-0.049583744
-3.3965242	mengenai	-0.08124396
-4.3832397	diwujudkan	0
-3.8815389	bergantung	-0.3719761
-4.063646	payah	-0.13648593
-4.020604	fikirkan	-0.04050429
-4.063646	pen	-0.3126682
-4.3832397	menulis	-0.06746736
-3.5745754	kertas	-0.2072479
-3.9814463	sayangkan	-0.11079837
-4.063646	bosan	-0.06746736
-3.8003707	mengapa	-0.150829
-4.165123	cintanya	-0.23372327
-3.519525	paling	-0.11889587
-4.6311436	perusahaan	-0.14737844
-4.4897385	madu	0
-4.930209	kelulut	0
-3.7114222	memerlukan	-0.03483006
-4.020604	modal	-0.062267218
-4.7417946	diusahakan	0
-4.297782	pelamin	-0.11293409
-4.7417946	senangnya	0
-3.6209881	berhadapan	-0.824426
-4.226407	memenangi	-0.04379444
-4.930209	melukis	0
-3.4267669	menjawab	-0.41038916
-3.560145	pantas	-0.13819899
-3.8815389	bangkit	-0.24135837
-4.7417946	pembaringan	-0.13653113
-4.7417946	lalang	-0.049587373
-3.7320104	seolah-olah	-0.117038
-3.103347	dekat	-0.29561853
-3.7536232	jiwa	-0.09841146
-3.7114222	sering	-0.046424147
-3.8003707	menukar	-0.19745019
-3.945529	topik	-0.18939848
-4.4897385	spontan	-0.021334112
-3.9123564	meluncur	-0.3719761
-3.637631	mulut	-0.12739934
-3.9814463	ain	-0.15946317
-3.519525	tanya	-0.11950155
-4.930209	apek	0
-4.930209	Peninsular	0
-4.930209	Excelsior	0
-4.930209	Hotel,	0
-3.9814463	Jalan	0
-4.930209	Dondang	0
-4.930209	Sayang,	0
-4.7417946	Building	0
-4.930209	Construction	0
-4.7417946	Authority.	-0.24538556
-4.297782	risaukan	-0.06746736
-3.368251	dian	-0.16513643
-3.7114222	pengalaman	-0.07021942
-3.3248708	langsung	-0.36642674
-3.0839553	kerja	-0.2738429
-3.9814463	berminat	-0.28624833
-3.7320104	siap	-0.07005021
-4.7417946	dimasak	0
-4.3832397	terhidang	-0.18863189
-4.297782	bangku	-0.27109265
-4.020604	coklat	-0.109000444
-4.297782	tampak	-0.07586843
-3.3503757	kejadian	-0.22115766
-3.6209881	bola	-0.32229137
-4.4897385	tergolek	0
-3.8003707	kolam	-0.17118795
-3.6549368	mandi	-0.24555096
-4.1114273	daripadanya	-0.13093597
-3.9123564	pilih	-0.046513397
-4.4897385	berjaga	-0.22236599
-3.6729612	jaga	-0.18859857
-4.6311436	kemunculan	0
-4.6311436	abangku	0
-3.470674	takut	-0.18251297
-3.945529	bapanya	-0.08546983
-3.5745754	bagai	-0.08209636
-4.7417946	tercabut	0
-4.165123	jantungnya	-0.07586843
-3.7114222	perkataan	-0.20268162
-4.7417946	sekali-sekala	0
-3.8527641	mencuri	-0.16524445
-3.6049597	pandang	-0.117585436
-3.6549368	taufik	-0.12561668
-4.6311436	melepas	-0.14737844
-3.448166	anda	-0.054175835
-3.448166	menggunakan	-0.05358027
-4.7417946	pengering	-0.04956567
-3.560145	rambut	-0.16916192
-3.945529	kering	-0.20192742
-4.297782	sempurna	-0.078482404
-4.7417946	menyeluruh	0
-3.7320104	tajam	-0.13396099
-3.1504295	perasaan	-0.24288282
-3.3166916	marah	-0.23860982
-3.7320104	kecewa	-0.3644696
-4.930209	lampai	-0.04956567
-4.7417946	eja	0
-4.930209	mala	0
-4.4897385	mencebik	0
-3.5067875	isu	-0.113478795
-4.930209	ditimbulkan	0
-3.6729612	tok	-0.2093663
-4.165123	mengulas	-0.05310933
-3.7114222	diberikan	-0.12021441
-4.3832397	bersungguh	-0.13498062
-3.8815389	memasak	-0.14289734
-4.063646	goreng	-0.11890197
-3.3868937	penuh	-0.18008389
-3.3166916	sayang	-0.24038327
-4.297782	tipu	0
-4.6311436	sunat	0
-3.8003707	tersengih	-0.16866371
-4.7417946	arahnya	-0.053094734
-3.8003707	mengawal	-0.103674024
-3.7536232	suaranya	-0.084054664
-3.300781	agar	-0.1221251
-3.448166	itulah	-0.14704071
-4.226407	sikapnya	-0.05716341
-3.0180924	sejak	-0.31488854
-4.6311436	hentakan	0
-3.9814463	pastikan	-0.028479083
-4.020604	berbaring	-0.37091678
-3.6729612	memiliki	-0.034409747
-4.7417946	ketinggian	0
-4.4897385	sekurang-kurangnya	-0.09803164
-4.6311436	meter	0
-4.3832397	ceritakan	-0.16785611
-3.8815389	manakala	-0.06791164
-4.7417946	laras	0
-3.8257778	t	-0.35242486
-4.297782	v	-0.105582796
-4.3832397	diturunkan	0
-3.637631	menjadikan	-0.06819749
-3.9814463	senyap	-0.071372524
-4.1114273	sepi	-0.24080446
-3.3774724	masing-masing	-0.24209793
-3.6729612	menyatakan	-0.027641892
-3.6729612	merenung	-0.23128067
-4.063646	emaknya	-0.0528064
-4.6311436	aki	-0.008601306
-3.6049597	mencapai	-0.19226933
-3.8257778	cawan	-0.12791371
-4.7417946	hirup	0
-4.6311436	airnya	0
-4.063646	lautan	-0.1179418
-4.930209	diratah	0
-3.8257778	lengan	-0.12047312
-4.165123	kemeja	-0.12849282
-4.6311436	lipat	0
-4.165123	suku	-0.07586843
-4.7417946	Can	-0.13653113
-3.6549368	you	-0.1008759
-4.4897385	take	-0.28036857
-3.7114222	the	-0.11657781
-4.930209	MRT	-0.10552585
-3.6549368	to	-0.043317653
-4.930209	Sandy	0
-4.930209	Island?	0
-4.7417946	berfokus	0
-3.560145	belakang	-0.109278575
-4.930209	cubit	0
-4.930209	rempit	0
-4.930209	os	0
-4.930209	diupah	0
-4.226407	mengekori	-0.11293409
-4.165123	akad	-0.523396
-4.6311436	nikah	-0.0727043
-4.297782	risiko	0
-4.063646	cuaca	-0.099913366
-4.6311436	diramalkan	0
-3.4944131	berubah	-0.19524193
-4.3832397	singkat	-0.13064848
-4.4897385	ditafsirkan	-0.10558751
-3.8527641	akhbar	-0.19395964
-4.4897385	babak	0
-3.9814463	kacak	-0.13093902
-4.4897385	bertubuh	-0.082316354
-4.4897385	sasa	-0.10558751
-4.3832397	posisi	-0.06746736
-4.930209	mengghairahkan	0
-4.930209	dimuatkan	0
-3.6549368	filem	-0.08343748
-3.7320104	mimpi	-0.19927992
-3.5461783	jumpa	-0.20351514
-4.1114273	c	-0.053640246
-3.3503757	aje	-0.24795999
-4.4897385	bunyinya	0
-3.945529	sebut	-0.1624905
-4.165123	syifa	-0.04959277
-4.930209	kebocoran	0
-4.7417946	penyelewengan	0
-4.4897385	urus	-0.06746736
-4.297782	tadbir	-0.18863189
-3.8003707	sumber	-0.087392665
-3.9814463	kewangan	-0.08276964
-4.226407	maklum	-0.055463504
-3.4944131	milik	-0.104043
-3.8003707	membayar	-0.15803573
-4.063646	cukai	-0.032424897
-4.020604	aspek	-0.032424897
-4.930209	selamatan	0
-3.8815389	kos	-0.09525978
-4.6311436	ditanggung	-0.010536068
-3.8003707	riak	-0.17342268
-3.519525	sedih	-0.18312882
-4.3832397	terlukis	-0.16785611
-4.930209	angsa	0
-4.6311436	berpatah	-0.33188027
-3.6049597	sungguh	-0.09411743
-4.6311436	perkhabaran	0
-3.8257778	salam	-0.12004633
-4.3832397	terkocoh-kocoh	0
-3.5326474	mendapatkan	-0.055978376
-3.22895	ibunya	-0.29429263
-3.8815389	merasakan	-0.049303304
-4.297782	min	0
-4.4897385	tercungap-cungap	0
-4.7417946	payahlah	-0.015901517
-4.165123	syed	-0.10558751
-4.7417946	liat	0
-4.226407	sayur	0
-4.1114273	satu-satunya	-0.117261134
-4.226407	dimakan	-0.04379444
-3.945529	ianya	-0.04379444
-4.930209	bayam	0
-4.7417946	rombongan	0
-4.7417946	pers	0
-4.7417946	dijemput	0
-4.3832397	duta	-0.16785611
-3.8257778	wakil	-0.20294586
-4.063646	r	-0.09173753
-3.3503757	i	-0.18330052
-3.470674	b	-0.43338537
-4.3832397	menikah	-0.16785611
-4.165123	bini	-0.04959277
-4.297782	muntah	0
-4.4897385	berak	0
-4.6311436	serupa	0
-3.1341615	membuat	-0.17777573
-4.1114273	persiapan	-0.08933203
-4.020604	kadar	-0.029842898
-3.3086634	segera	-0.18054293
-3.7114222	memasuki	-0.08185188
-3.8815389	diminta	-0.12299365
-4.7417946	tolonglah	-0.024076093
-4.4897385	mujur	-0.013593933
-4.063646	majalah	-0.074154034
-4.165123	dibaca	-0.09803164
-4.6311436	rupa-rupanya	-0.06746736
-4.7417946	syam	0
-4.6311436	walhal	0
-3.5326474	bawa	-0.119363636
-3.1789749	suaminya	-0.35123798
-3.7114222	panggil	-0.114823386
-3.4164503	dunia	-0.18189861
-4.1114273	diduga	0
-4.7417946	cita	0
-4.930209	citanya	0
-4.3832397	saintis	-0.06746736
-4.1114273	dibuang	-0.04379444
-4.297782	tong	-0.20192742
-3.9123564	sampah	-0.24687187
-3.9814463	bersalah	-0.14499217
-3.4944131	dibawa	-0.29282743
-3.7763684	lewat	-0.12837532
-4.3832397	menegurnya	-0.14737844
-4.020604	lebar	-0.15510651
-4.7417946	dicarinya	-0.193598
-3.560145	fikir	-0.20129849
-4.165123	sejenak	-0.044838056
-4.226407	tersentak	-0.14737844
-3.6729612	namanya	-0.1872912
-4.6311436	dibayar	-0.14737844
-3.8527641	gaji	-0.049257662
-3.8815389	menghantar	-0.09531342
-3.637631	datin	-0.1480368
-3.9123564	mana-mana	-0.046585523
-3.9814463	yazid	-0.029842898
-4.930209	wibawa	0
-4.7417946	reti	-0.18397191
-3.6729612	selain	-0.046544515
-4.3832397	perbelanjaan	-0.019152923
-4.226407	peningkatan	-0.05716341
-4.6311436	kecekapan	0
-3.4373345	membantu	-0.10355175
-4.3832397	menjana	-0.082316354
-4.226407	pertubuhan	-0.05716341
-3.4164503	puan	-0.2300956
-4.930209	hendon	0
-4.1114273	pindah	-0.1482564
-4.063646	cucunya	-0.42086983
-3.5067875	mengalir	-0.32846487
-4.1114273	tertekan	-0.06839683
-3.8815389	sikap	-0.087397784
-4.297782	maafkan	-0.045562025
-3.4063728	papa	-0.13742903
-4.930209	hisham	-0.10552585
-4.930209	bersalahh	0
-4.930209	daud	0
-4.226407	dibasahi	-0.29685122
-3.7114222	beli	-0.11155135
-3.3592215	baju	-0.22390635
-4.930209	kebasahan	0
-4.020604	diseka	-0.1550497
-4.4897385	mar	0
-4.4897385	bernyawa	-0.013593933
-3.7320104	rumahnya	-0.27899992
-4.1114273	menumpukan	-0.2354066
-4.1114273	sepenuh	-0.28471303
-3.6549368	perhatian	-0.16809237
-4.3832397	pembelajaran	-0.06746736
-3.8527641	sepasang	-0.2357037
-3.7763684	lupa	-0.12951124
-4.930209	ukir	0
-4.7417946	kitab	0
-4.3832397	al-quran	-0.082316354
-3.4944131	?	-1.4110615
-4.7417946	hadapannya	-0.031063667
-4.6311436	zainab	-0.019978017
-3.4823813	sibuk	-0.13357395
-3.691766	melayan	-0.099379905
-4.297782	henti	-0.06746736
-4.7417946	kunjung	-0.24538556
-3.8815389	laki	-0.27075097
-4.7417946	merapikan	-0.032407492
-3.8003707	rambutnya	-0.31557944
-3.6209881	cermin	-0.24281844
-3.519525	kedengaran	-0.25840247
-4.930209	afdal	0
-4.930209	sepetang	-0.10552585
-3.4592743	kakak	-0.2532814
-4.930209	interpretasi	0
-4.165123	fizikal	0
-4.226407	persamaan	-0.09250546
-4.6311436	sakitnya	0
-3.8815389	menyerang	-0.106035836
-4.020604	berdiam	-0.46109343
-3.5326474	membalas	-0.12574396
-4.930209	berlak	0
-3.7114222	maka	-0.034409747
-4.226407	perang	-0.011871229
-3.6729612	pas	-0.074543
-4.930209	ti	0
-4.7417946	dielakkan	-0.04956567
-3.945529	kasihan	-0.08473678
-4.226407	keseorangan	-0.18863189
-4.930209	alaf	0
-4.930209	mancis	0
-4.6311436	cap	0
-4.1114273	dijual	-0.085178465
-3.9123564	pasaran	-0.09672312
-4.063646	rupanya	-0.016615033
-4.4897385	rashid	0
-4.3832397	difahamkan	-0.05716341
-3.637631	selamat	-0.14225808
-3.3248708	polis	-0.20830524
-4.226407	menyiasat	-0.10558748
-3.3868937	kes	-0.18690579
-3.5326474	diletakkan	-0.59913063
-3.7536232	memandu	-0.109000444
-4.3832397	trauma	0
-4.930209	kurnia	0
-4.930209	betara	0
-4.930209	majapahit	0
-3.6729612	melarikan	-0.6449774
-3.7320104	menaiki	-0.3110884
-3.519525	buah	-0.11115522
-3.9814463	motosikal	-0.082316354
-3.8257778	dipercayai	-0.033719648
-4.297782	pendaftaran	-0.011871229
-4.063646	palsu	-0.06746736
-4.930209	pengulas	0
-4.930209	prokerajaan	0
-3.7320104	mendakwa	0
-4.063646	lapan	-0.032424897
-3.9814463	wartawan	-0.05716341
-2.9866645	berkenaan	-0.28689706
-3.3086634	menarik	-0.31213078
-4.297782	saiz	-0.05716341
-4.7417946	produksi	0
-4.4897385	menelefon	-0.10558751
-4.1114273	pengurus	0
-4.165123	pentas	-0.04379444
-3.9123564	sehinggalah	-0.14439428
-4.6311436	penerbit	0
-4.930209	ungkit	0
-4.226407	tahulah	-0.06791164
-4.930209	kina	0
-3.8257778	remaja	-0.19844095
-3.9123564	menyesal	-0.19459152
-3.6549368	diberi	-0.074562766
-4.226407	tunjuk	-0.011871229
-3.5895019	peluang	-0.28521273
-4.165123	membela	-0.21121593
-4.020604	prestasi	-0.035496276
-4.6311436	jangkaan	0
-3.6729612	pengguna	-0.104938254
-4.3832397	bayangkan	-0.10558065
-3.448166	jelas	-0.1082414
-3.519525	wajahnya	-0.25291863
-4.930209	murung	0
-3.3417065	memikirkan	-0.22778907
-4.930209	menyusuri	0
-3.8527641	luas	-0.19801283
-3.9123564	teruja	-0.115573265
-4.1114273	dilihatnya	-0.06745795
-4.7417946	satunya	0
-3.3868937	cara	-0.15597609
-4.930209	muhasabah	0
-3.8257778	menyedari	-0.11595942
-4.063646	kekurangan	0
-4.020604	enggan	-0.024088899
-4.930209	ditampilkan	0
-4.226407	permukaan	-0.05716341
-4.930209	renang	-0.04956567
-4.6311436	sindiran	0
-3.8527641	pelakon	-0.05399066
-4.6311436	membelikan	0
-4.297782	wangi	-0.05716341
-4.930209	berbau	0
-4.226407	busuk	-0.07586843
-3.6729612	teruk	-0.13243815
-4.930209	teladan	0
-3.7114222	memohon	-0.18653655
-3.9814463	perintah	-0.025743335
-4.930209	injunksi	0
-4.020604	menghalang	-0.024088899
-4.4897385	defendan	0
-4.6311436	mengulangi	0
-4.4897385	menerbitkan	0
-3.4592743	laporan	-0.19796804
-4.165123	fitnah	-0.16006342
-3.9123564	mengerling	-0.44421473
-4.1114273	menanggung	-0.14737844
-4.930209	down	0
-4.165123	man	-0.010536068
-4.1114273	long	-0.1053406
-3.9123564	lambat	-0.057163384
-4.020604	setakat	-0.2078622
-4.930209	dipastikan	-0.04956567
-4.930209	peletakan	0
-3.7114222	jawatan	-0.073291175
-4.3832397	adun	0
-4.6311436	tersinggung	0
-3.9123564	kata-katanya	-0.264672
-4.020604	bangga	-0.19305897
-4.6311436	kegelapan	0
-4.6311436	bil	0
-3.3086634	lepas	-0.22492808
-3.945529	sambung	-0.052360885
-3.4592743	mati	-0.13797884
-3.6729612	mengalami	-0.16937697
-4.1114273	kecederaan	-0.08554667
-3.2356215	kepala	-0.21918784
-4.6311436	mayatnya	0
-4.063646	bedah	-0.27369076
-4.165123	siasat	-0.090393014
-3.7763684	indonesia	-0.08068252
-3.8815389	amerika	-0.53292066
-4.226407	australia	0
-4.930209	kingdom	0
-4.930209	mengiau	0
-3.9123564	pelayan	-0.17629084
-3.3965242	membawa	-0.08930312
-4.3832397	mengecam	0
-4.4897385	membuntang	0
-4.930209	maimun	0
-4.930209	permodalan	0
-4.6311436	berhad	-0.06746736
-4.3832397	melabur	-0.13498062
-3.9814463	sektor	-0.05310933
-4.063646	nyata	-0.10609112
-4.4897385	arak	-0.10558751
-4.930209	judi	0
-4.020604	baiknya	-0.14959225
-3.4164503	adiknya	-0.47225818
-4.6311436	susahkan	0
-4.063646	ringan	-0.1537727
-3.8257778	membuang	-0.24552935
-3.691766	restoran	-0.25799584
-4.020604	sepatah	-0.16006342
-4.1114273	ditanya	-0.14831333
-4.226407	dijawab	-0.17092603
-3.3332071	terlalu	-0.121752195
-4.1114273	mindanya	-0.08676879
-4.1114273	seraya	-0.017376414
-4.165123	rakan-rakannya	-0.23692697
-3.9814463	cepat-cepat	-0.08095205
-3.8257778	melabuhkan	-0.578002
-4.165123	punggung	-0.24080446
-4.226407	berlama-lama	-0.22207858
-4.3832397	jadinya	-0.09710391
-4.297782	tas	-0.26596794
-3.5461783	menutup	-0.27728015
-4.063646	mengesat	-0.3719761
-4.6311436	bertakung	-0.14737844
-4.6311436	waras	0
-4.3832397	membezakan	-0.082316354
-4.1114273	membayangkan	-0.039210834
-4.226407	ketat	-0.04959277
-3.8815389	layan	-0.10588636
-3.7320104	meluahkan	-0.38326514
-4.226407	terlintas	-0.26783606
-3.4592743	rima	-0.15661816
-3.8527641	lega	-0.2325699
-4.930209	berpandang	0
-3.300781	adam	-0.16172832
-3.5326474	ayat	-0.21736605
-3.7763684	sesuai	-0.22047095
-4.4897385	dituturkan	-0.082316354
-4.020604	intan	-0.063993685
-3.5461783	faham	-0.19578066
-4.3832397	menghempaskan	-0.18863189
-4.165123	tilam	-0.1411353
-3.9814463	asalkan	-0.07668831
-4.4897385	memuaskan	0
-3.7763684	operasi	-0.049257662
-4.4897385	diketuai	0
-4.930209	narkotik	0
-3.8815389	daerah	-0.05762928
-3.6549368	kota	-0.18483153
-4.930209	setar	0
-3.8527641	johor	-0.10812374
-4.1114273	semata-mata	-0.14737844
-4.063646	melawat	-0.025743335
-4.930209	sarimah	0
-3.6049597	tua	-0.14925568
-3.637631	tolong	-0.14540121
-4.4897385	kadang-kadang	-0.086099476
-3.4063728	benda	-0.41980842
-4.930209	parau	0
-3.6549368	hujung	-0.17872752
-4.3832397	jambatan	-0.082316354
-4.4897385	menghubungkan	0
-3.7536232	umi	-0.12993066
-4.063646	malang	-0.039210834
-4.020604	agenda	-0.096488886
-4.3832397	tersendiri	-0.24703738
-4.297782	terangkan	0
-3.7114222	terjadi	-0.23738109
-3.5461783	merupakan	-0.111323774
-3.6209881	penting	-0.2072683
-4.7417946	taiko	0
-4.7417946	omel	0
-4.165123	melah	-0.12298362
-4.7417946	seramai	0
-3.9814463	saksi	-0.12921402
-4.1114273	pendakwaan	-0.05716341
-4.6311436	pembelaan	0
-4.3832397	perbicaraan	-0.24703738
-4.1114273	katakan	-0.119486965
-4.930209	digesa	0
-3.8257778	selesa	-0.086955585
-4.6311436	ramalan	0
-4.930209	firma	0
-4.4897385	penyelidikan	0
-4.4897385	populariti	0
-3.8003707	pakatan	-0.535727
-4.063646	budi	-0.11191137
-4.020604	memotong	-0.008601306
-3.8527641	sebahagian	-0.1269416
-3.5895019	pokok	-0.15759625
-4.3832397	dahan	-0.082316354
-4.930209	dahannya	0
-4.7417946	diajar	0
-3.9123564	bersikap	-0.04379444
-3.6549368	sanggup	-0.11500454
-3.9123564	nasib	-0.08141912
-3.9123564	hantar	-0.14424565
-3.945529	menyelamatkan	-0.072698936
-4.063646	melaksanakan	-0.034832526
-3.8527641	tanggungjawab	-0.17859629
-4.7417946	esa	-0.10558751
-3.6549368	malu	-0.19775614
-4.930209	terberak	0
-4.6311436	panjang-panjang	0
-4.297782	kerenah	0
-4.1114273	pertengahan	-0.09379008
-3.8527641	usia	-0.088826515
-3.9123564	memperkenalkan	-0.1551552
-4.6311436	mokhtar	-0.10558751
-3.7763684	o	-0.18893243
-4.4897385	halau	-0.082316354
-4.020604	berkongsi	-0.10034259
-4.1114273	kegembiraan	-0.037631344
-3.945529	melahirkan	-0.17589742
-4.297782	urat	0
-4.063646	perutnya	-0.15656696
-4.930209	peryantaan	0
-4.165123	tidaklah	-0.13093597
-4.297782	dituang	-0.13498062
-4.6311436	akulah	-0.024076093
-4.6311436	bangkok	0
-3.8003707	kehadiran	-0.08327238
-3.8003707	bukannya	-0.063489184
-3.637631	bersedia	-0.24780671
-3.448166	budak	-0.40801778
-3.945529	pengundi	-0.0528064
-4.4897385	pengenalan	-0.06746736
-4.6311436	pengesahan	0
-4.1114273	identiti	-0.082316354
-4.165123	mengundi	-0.062267218
-4.1114273	berpindah	-0.21121593
-3.560145	esok	-0.16742125
-4.4897385	murni	-0.082316354
-3.5895019	menghampiri	-0.0876877
-4.063646	detik	-0.1102482
-4.297782	dilupakan	-0.05716341
-4.930209	Enjoy	-0.10552585
-4.7417946	your	0
-4.7417946	seafood	0
-4.930209	linguine!	0
-4.1114273	pemikiran	0
-4.3832397	geli	-0.16785611
-4.020604	aishah	-0.037631344
-3.3774724	meminta	-0.24140814
-4.4897385	izin	-0.017376414
-4.3832397	berhijrah	-0.31927598
-3.945529	rezeki	-0.039210834
-3.4267669	pemuda	-0.35474882
-3.4592743	ketua	-0.22141409
-4.297782	penerangan	-0.015901517
-4.226407	ibrahim	-0.011871229
-4.4897385	pesuruhjaya	-0.10558751
-4.165123	pahang	-0.049587373
-4.1114273	burung	-0.010536068
-4.165123	hantu	-0.31107187
-4.6311436	jengkel	0
-4.6311436	keterlaluan	0
-4.165123	tiap	-0.2006184
-3.945529	termenung	-0.10827973
-4.165123	kang	0
-4.1114273	menepuk	-0.19223802
-4.930209	nepuk	0
-4.020604	along	-0.007877997
-4.930209	lala	0
-4.7417946	jajahan	0
-4.020604	melupakan	-0.100269735
-3.691766	kenangan	-0.29000103
-4.7417946	tebus	-0.14737844
-3.8257778	kesalahan	-0.12961484
-3.9123564	nya	-0.101325
-3.945529	membersihkan	-0.23947611
-3.7763684	kotak	-0.09473429
-4.930209	6773	0
-4.930209	9258	0
-4.930209	Kimberly	0
-4.226407	loves	0
-4.930209	barbecued	0
-4.930209	oysters	0
-4.4897385	with	-0.13653113
-4.930209	chipotle	0
-4.930209	glaze.	0
-3.9123564	mencuba	-0.13864961
-3.945529	surya	-0.10558065
-4.020604	manja	-0.11293409
-4.4897385	gedik	-0.24538556
-4.6311436	menadah	-0.14737844
-4.930209	maha	-0.032407492
-3.560145	senyum	-0.16646588
-4.226407	sinis	-0.053640246
-4.930209	mek	0
-4.6311436	zohor	-0.05716341
-4.297782	tegur	-0.039200235
-4.3832397	inspektor	-0.31927598
-4.6311436	hamid	0
-3.7114222	mataku	-0.08115402
-4.226407	terarah	-0.32610568
-4.6311436	mencekak	-0.24538556
-4.7417946	pinggangnya	0
-4.165123	terdiam	-0.1482564
-3.945529	menentang	0
-4.7417946	menjumpai	0
-4.930209	informasi	0
-3.5745754	malah	-0.06440662
-3.637631	maklumat	-0.11768595
-4.3832397	dijumpai	-0.082316354
-4.226407	menaip	-0.20192742
-4.930209	negaranya	0
-3.8003707	perbuatan	-0.10340136
-3.6209881	menyebabkan	-0.08942362
-3.7763684	cedera	-0.18560839
-3.6549368	bunga	-0.18495448
-4.226407	beranak	-0.12299365
-3.945529	membuktikan	-0.04300876
-3.8003707	bapa	-0.11594971
-4.7417946	warganegara	0
-4.226407	dilahirkan	-0.04959277
-4.7417946	sentul	0
-3.7320104	bahasa	-0.10862684
-4.930209	daif	0
-3.6549368	mengangguk	-0.3139304
-3.9123564	menafikan	-0.028479083
-4.7417946	legasi	0
-3.9123564	ditinggalkan	-0.1324483
-4.4897385	negatif	0
-4.930209	dirombak	0
-4.6311436	motosikalnya	0
-4.930209	graf	0
-4.226407	ombak	0
-3.293039	naik	-0.2511112
-4.3832397	diajak	-0.24703738
-4.7417946	berborak	0
-3.8815389	sepatutnya	-0.041598223
-4.1114273	bertanyakan	-0.13907404
-3.7114222	sebegitu	-0.4345569
-3.8527641	mengubah	-0.12047729
-4.165123	tiket	-0.010536068
-4.4897385	besok	0
-4.1114273	mi	0
-4.930209	kolok	0
-4.4897385	jawa	0
-4.7417946	laksa	0
-4.020604	sarawak	-0.049079064
-4.7417946	order	0
-3.9123564	berdasarkan	-0.09672312
-3.3592215	awal	-0.28282642
-4.930209	korban	0
-3.8003707	tempatan	-0.12589747
-3.5895019	warga	-0.2354066
-3.6549368	asing	-0.2298109
-3.7320104	pemandu	-0.20201376
-4.3832397	treler	-0.082316354
-3.7763684	kemalangan	-0.08338745
-4.930209	Pixel	0
-4.930209	Heart,	0
-4.930209	Spectacle	0
-4.930209	Heart	0
-4.930209	Hoyu.	0
-4.7417946	luluh	-0.24538556
-4.3832397	ustazah	0
-4.6311436	mariam	-0.082316354
-3.2854328	sakit	-0.26846015
-4.063646	ditekan	-0.082316354
-3.5895019	tanah	-0.18242632
-4.226407	gemar	-0.025743335
-4.165123	bergaya	-0.16006342
-3.8815389	ringkas	-0.09131344
-3.7536232	menyambung	-0.12554958
-4.020604	perhubungan	-0.12136726
-4.930209	berkesempatan	0
-3.7114222	berjumpa	-0.24313645
-4.930209	runcit	0
-3.560145	bas	-0.19503969
-4.4897385	membaringkan	-0.082316354
-4.165123	disimpan	-0.15656696
-4.1114273	kuning	-0.09803164
-4.6311436	cair	-0.032407492
-4.7417946	penderma	0
-4.6311436	sepupu	0
-3.3774724	beg	-0.41026616
-3.7536232	plastik	-0.22095226
-4.1114273	biji	-0.10558748
-4.297782	limau	0
-4.930209	dicapainya	0
-4.930209	dikupas	0
-4.226407	lagipun	-0.05515108
-3.6209881	habis	-0.07946026
-3.2159069	sekolah	-0.28020248
-4.4897385	amin	-0.06746736
-4.226407	lokman	-0.035496276
-3.9123564	peguam	-0.134584
-4.4897385	membincangkan	-0.082316354
-4.063646	saman	0
-4.4897385	redup	-0.05716341
-4.4897385	juita	-0.082316354
-4.297782	berbunga	-0.22990443
-4.930209	University	0
-4.7417946	Walk,	0
-4.930209	Darul	0
-4.930209	Ehsan	0
-4.930209	Orphanage	0
-4.930209	Tagore	0
-4.930209	Industrial	0
-4.930209	Estate	0
-4.7417946	dahlan	0
-4.063646	patung	-0.1411353
-4.7417946	beruang	0
-4.930209	peluknya	0
-4.7417946	lijah	-0.04959277
-4.063646	jua	-0.059056826
-3.8527641	terdengar	-0.15762329
-3.6729612	tapak	-0.38507062
-3.8815389	pesakit	-0.06745983
-4.4897385	setitis	-0.15682653
-3.2854328	jatuh	-0.36955464
-3.8257778	menitis	-0.32581937
-4.297782	erti	-0.086099476
-3.5461783	bahagia	-0.18426785
-4.063646	mematikan	-0.2511497
-3.24928	telefon	-0.3809511
-4.7417946	bimbit	-0.05186396
-3.6549368	memilih	-0.17600995
-4.7417946	riuh-rendah	0
-3.8815389	surau	-0.16164476
-4.297782	biasanya	0
-3.7536232	sebaliknya	-0.12811483
-3.8815389	hairan	-0.15212528
-3.8257778	mamat	-0.19198683
-4.7417946	kolot	0
-3.448166	muncul	-0.2733588
-4.4897385	menatang	-0.024076093
-4.226407	dulang	-0.16895543
-4.4897385	sebiji	0
-4.6311436	teko	0
-4.165123	hebat	-0.074154034
-4.4897385	bergelora	-0.10558751
-4.930209	malahan	-0.032407492
-3.8815389	menjeling	-0.29096863
-4.297782	fitri	-0.24703738
-4.297782	angkuh	-0.06746736
-3.691766	arahan	-0.07732597
-3.9123564	pengawal	-0.372005
-4.297782	peribadinya	-0.13498062
-3.6729612	memegang	-0.08256686
-3.8257778	tanganku	-0.15983891
-4.3832397	gelodak	-0.16785611
-4.930209	dipendam	0
-4.930209	benting	0
-4.165123	pasir	-0.074154034
-3.6049597	memerhatikan	-0.11605058
-3.9123564	gerak	-0.22519201
-4.930209	geri	-0.019152923
-3.7536232	mesyuarat	-0.12639455
-4.226407	bertembung	-0.16006342
-4.930209	merangkak-rangkak	0
-3.7763684	gaya	-0.08338745
-4.226407	seekor	-0.055463504
-4.7417946	cicak	0
-4.226407	melekat	-0.268266
-4.297782	elemen	0
-3.7320104	agama	-0.20216489
-4.6311436	kekeluargaan	0
-4.7417946	diselitkan	0
-4.4897385	dalamnya	-0.11293409
-4.226407	ceritanya	0
-4.7417946	rencam	0
-4.4897385	rumit	-0.10558751
-4.930209	Flint,	0
-4.930209	Trula	0
-4.930209	Celestine.	0
-4.6311436	getar	-0.10558751
-4.3832397	berangkat	-0.28036857
-4.020604	menyebut	-0.0841541
-4.930209	seuntai	0
-4.297782	motor	-0.055463504
-4.063646	diana	-0.074154034
-4.930209	save	0
-4.4897385	tumpang	-0.082316354
-3.519525	berita	-0.21439178
-4.930209	Amy	0
-4.930209	Van,	0
-4.930209	Victor	0
-4.930209	Doggett	0
-4.6311436	Chan	0
-4.930209	Soha.	0
-4.226407	tawar	-0.13907404
-4.020604	sepuluh	-0.20676275
-4.063646	jarinya	-0.0702794
-4.930209	mencakar-cakar	0
-4.063646	lengannya	-0.31927598
-4.226407	digenggam	-0.29777634
-3.8257778	erat	-0.18056595
-3.9814463	tingkat	-0.19229823
-3.519525	hujan	-0.29983985
-3.9814463	lebat	-0.07399004
-3.3868937	termasuk	-0.020301249
-4.4897385	mengendalikan	0
-3.3417065	semasa	-0.07882617
-3.7536232	berkaitan	-0.098129325
-4.297782	ancaman	0
-4.7417946	siber	0
-4.7417946	beretika	0
-3.945529	bertanggungjawab	-0.134584
-4.930209	Arifin,	0
-4.930209	Toh	0
-4.226407	Lee	-0.035496276
-4.6311436	Ying	0
-4.930209	Raymond	0
-4.930209	Anthony	0
-4.930209	Fernando	0
-4.930209	Nothing	-0.10552585
-4.930209	beats	-0.10552585
-4.7417946	having	0
-4.930209	Hakau	0
-3.7114222	in	-0.30795336
-4.7417946	summer.	-0.24538556
-4.6311436	menakjubkan	0
-3.8527641	peminat	-0.046513397
-3.6729612	berbanding	-0.015262202
-4.165123	drama	-0.04379444
-3.560145	melayu	-0.1011259
-3.3086634	meninggalkan	-0.189435
-4.226407	razak	-0.17092603
-4.063646	nampaknya	-0.03389109
-3.8527641	terakhir	-0.09135663
-3.6209881	mahkamah	-0.12637866
-3.5895019	zaman	-0.1627401
-4.226407	persekolahan	-0.17092603
-4.7417946	gelabah	0
-3.9123564	mengalah	-0.18360083
-4.063646	menyuap	-0.117261134
-4.020604	laila	-0.099913366
-3.4164503	buku	-0.31228554
-4.6311436	loya	-0.14737844
-4.930209	Jackus	0
-4.930209	Dikuter,	0
-4.930209	Devagi	0
-4.7417946	Shanmugam	-0.24538556
-4.7417946	Tin	0
-4.6311436	Pei	0
-4.930209	Ling.	0
-4.7417946	dibendung	-0.04956567
-4.297782	menular	-0.06746736
-4.6311436	kanser	0
-4.6311436	melumpuhkan	-0.14737844
-4.063646	pentadbiran	-0.04091957
-3.8815389	maut	-0.1537727
-3.5895019	ialah	-0.02218641
-4.7417946	lans	-0.24538556
-4.930209	koperal	0
-4.226407	zamri	0
-4.165123	hashim	-0.06767126
-4.020604	menjamah	-0.13605434
-3.3332071	pagi	-0.35394847
-4.3832397	terserempak	-0.3743721
-4.6311436	mah	0
-4.226407	secawan	-0.22377336
-4.4897385	berumur	0
-4.930209	sendirinya	0
-4.7417946	dikelilingi	0
-4.930209	warganya	0
-3.945529	lapar	-0.06042981
-3.8003707	nisa	-0.073607974
-4.930209	terbahagi	0
-4.930209	berturutan	0
-4.226407	prihatin	0
-4.930209	samping	0
-4.930209	pengolahan	0
-3.8257778	nasihat	-0.05649743
-4.3832397	berupa	0
-4.930209	hadis	0
-3.7320104	al	-0.4069672
-4.930209	quran	-0.04956567
-4.7417946	diterapkan	0
-4.930209	recommend	-0.10552585
-4.226407	me	-0.19457471
-4.930209	restaurant	-0.10552585
-4.6311436	near	0
-4.6311436	St	0
-4.6311436	James	0
-4.930209	Power	0
-4.930209	Station?	0
-4.7417946	ditunggu	0
-4.930209	duaan	0
-3.5745754	nur	-0.29318443
-4.930209	naziha	-0.04956567
-3.4373345	melalui	-0.07525273
-4.4897385	bilikku	-0.12300794
-4.4897385	mel	0
-3.4944131	abu	-0.30882815
-3.6549368	beri	-0.05716341
-3.5745754	lagu	-0.14350669
-4.4897385	tuju	-0.039210834
-4.165123	opah	-0.15703432
-3.7536232	benar-benar	-0.048334952
-4.1114273	ana	0
-4.7417946	segala-gala	0
-4.020604	apakah	-0.099105924
-4.165123	kerap	0
-4.7417946	gadis-gadis	0
-4.4897385	menaruh	-0.19634777
-3.470674	kepadanya	-0.34573066
-4.4897385	zirah	0
-3.691766	usaha	-0.06746736
-3.8003707	memastikan	-0.044389743
-4.226407	berpeluang	0
-3.4944131	bekerja	-0.4013607
-3.9123564	raja	-0.025743335
-4.930209	roboh	0
-4.3832397	mencadangkan	-0.082316354
-3.7763684	masjid	-0.14622644
-4.3832397	bukankah	0
-3.8527641	sedap	-0.14369649
-4.930209	jamu	0
-4.4897385	baling	0
-4.4897385	sambut	0
-4.297782	rebah	-0.05716341
-4.6311436	sedarkan	-0.10558751
-3.8003707	sabah	-0.18171121
-3.945529	mengenakan	-0.02263432
-4.930209	andak	-0.032407492
-4.165123	parah	-0.13498062
-4.1114273	bahunya	-0.14289734
-3.5326474	u	-0.094917
-3.242397	tidur	-0.24825996
-4.6311436	jelah	-0.14737844
-4.063646	kalah	-0.2053291
-4.020604	umum	-0.081473045
-3.8003707	tujuh	-0.21677968
-4.7417946	agam	-0.05716341
-3.8527641	membasahi	-0.28052315
-3.945529	pipinya	-0.35013077
-4.020604	patut	-0.05376445
-4.930209	berpakai	0
-4.6311436	sebelahnya	-0.05438521
-4.7417946	See	0
-4.930209	Tian	0
-4.930209	Fo	0
-4.930209	Combined	0
-4.4897385	Temple,	0
-4.930209	Recreation	0
-4.1114273	Road	-0.1482564
-4.165123	Singapore	0
-4.930209	Rolling	0
-4.3832397	Centre.	-0.55372906
-4.930209	Dose	0
-4.6311436	pendaftar	-0.032407492
-3.8527641	pemilik	-0.1482564
-4.930209	diwajibkan	0
-3.945529	bandar	-0.12343462
-4.4897385	menandatangani	-0.082316354
-3.7763684	dokumen	-0.12298362
-4.930209	galas	-0.032407492
-3.7320104	fail	-0.27099162
-3.9123564	dicapai	-0.1537727
-3.9814463	merebahkan	-0.3345311
-3.6209881	badannya	-0.240388
-4.297782	disapu	-0.24703738
-3.9123564	tertuduh	-0.02263432
-4.7417946	diwakili	-0.04956567
-3.8815389	mengaku	-0.09182627
-4.7417946	dibicarakan	0
-4.297782	keluhan	-0.16974275
-4.3832397	terpacul	-0.22243083
-3.8257778	bibirnya	-0.15537135
-4.930209	grik	0
-4.930209	loghat	0
-4.297782	pekat	-0.05716341
-4.063646	sisi	-0.039297193
-4.226407	jom	-0.08276964
-4.7417946	kerjakan	-0.04956567
-4.063646	bersandar	-0.43084103
-4.226407	tiang	-0.11293409
-3.8815389	tepi	-0.08762844
-3.6729612	tangga	-0.23410334
-4.4897385	tenggelam	-0.082316354
-4.1114273	gelisah	-0.1482564
-4.297782	promosi	0
-4.226407	kebelakangan	-0.46540403
-4.4897385	berkunjung	-0.22236599
-4.3832397	hasratnya	0
-4.4897385	jubah	-0.10558751
-4.6311436	umrah	-0.14737844
-3.8815389	berikan	-0.1537727
-4.6311436	ma	0
-4.930209	Guess.	0
-4.6311436	tani	0
-4.4897385	persepsi	0
-3.8257778	pembangkang	-0.10013652
-4.930209	menyebarkan	0
-4.930209	kebohongan	0
-3.8815389	diterima	-0.0763728
-4.226407	segan	-0.10558065
-4.226407	alih	-0.030322595
-4.7417946	ertinya	0
-4.930209	kepedulian	0
-3.9123564	pembantu	-0.46109343
-4.6311436	tersedia	-0.26331893
-4.1114273	anisah	0
-4.7417946	melipat	0
-3.6729612	kain	-0.19003655
-3.9814463	diangkat	-0.04091957
-4.7417946	ampaian	-0.032407492
-3.9814463	menyembunyikan	-0.082316354
-4.226407	marahnya	-0.1482564
-3.7536232	pertanyaan	-0.12125609
-4.930209	berkedut	0
-4.6311436	kedut	0
-4.930209	wuduk	-0.039189614
-3.9123564	menunaikan	-0.5029574
-4.930209	seboleh-boleh	0
-4.7417946	meringankan	-0.14737844
-3.945529	beban	-0.10975115
-3.7536232	main	-0.09354801
-3.5326474	api	-0.23555169
-4.7417946	warni	0
-4.063646	bersemangat	-0.109000444
-4.930209	9452	0
-4.930209	6297	0
-4.063646	skrin	-0.23469703
-4.226407	komputer	-0.28487578
-4.4897385	riba	-0.039210834
-4.930209	membalingkan	0
-3.8815389	rakaman	-0.12299365
-4.4897385	sayup-sayup	-0.015901517
-3.6729612	berhampiran	-0.21898526
-3.691766	lihat	-0.05351371
-4.1114273	kononnya	0
-4.4897385	dihentikan	0
-3.3086634	waktu	-0.21240371
-3.945529	diketuk	-0.13907404
-4.3832397	dilanggar	-0.082316354
-4.930209	salamah	0
-4.6311436	berdegil	0
-4.3832397	khalil	0
-4.226407	tertinggi	-0.09803164
-4.930209	disandangnya	0
-4.020604	pemilihan	-0.09135663
-4.3832397	pucuk	-0.082316354
-4.1114273	pimpinan	-0.039210834
-4.6311436	oktober	0
-3.7320104	azlan	-0.10432541
-3.560145	serius	-0.19587986
-4.4897385	anggukan	-0.024076093
-3.4592743	mesti	-0.15797676
-3.8257778	punca	-0.06455752
-3.7114222	perubahan	-0.15577683
-4.3832397	tunangnya	-0.18397191
-4.4897385	halim	-0.06746736
-3.519525	bertanya	-0.21375392
-3.519525	mengangkat	-0.21955016
-4.1114273	keningnya	-0.082316354
-4.165123	amar	-0.14803676
-4.930209	jodohnya	0
-4.226407	iman	-0.035496276
-4.165123	lena	-0.1680818
-4.6311436	teruna	-0.039189614
-3.945529	adi	-0.10034259
-4.930209	ratna	0
-3.6049597	nenek	-0.108945616
-4.930209	kebayan	0
-3.4592743	cukup	-0.084355496
-3.6209881	kenal	-0.21831268
-4.930209	membersihkannya	0
-4.4897385	jernih	-0.12300794
-4.930209	laung	-0.039189614
-4.6311436	jah	-0.015901545
-4.930209	pangkin	-0.10552585
-3.7320104	kayu	-0.195002
-4.020604	terlupa	-0.024088899
-3.945529	mengharapkan	0
-3.8527641	berkawan	-0.2135349
-3.5461783	sesiapa	-0.35653692
-4.930209	talasemia	0
-4.297782	sejenis	0
-3.8527641	penyakit	-0.039210834
-4.930209	genetik	0
-4.6311436	sel	0
-4.930209	diwarisi	0
-4.930209	tumbesaran	0
-4.7417946	terbantut	-0.24538556
-4.7417946	perampas	-0.04956567
-3.7763684	menceritakan	-0.33067286
-4.4897385	gak	0
-3.7536232	padanya	-0.3100572
-3.6209881	insan	-0.49281973
-4.1114273	bermakna	-0.046513397
-3.293039	hal	-0.30692616
-4.7417946	berbagai	0
-3.691766	jenis	-0.033583734
-4.7417946	langsat	0
-4.7417946	dokong	0
-4.6311436	rambutan	0
-4.930209	manggis	0
-4.930209	didaki	0
-4.3832397	menikam	0
-4.4897385	dahiku	-0.082316354
-4.7417946	diciumnya	0
-3.3417065	lembut	-0.19446509
-4.020604	ligat	-0.09089014
-4.6311436	lakaran	0
-3.6549368	dibuat	-0.12748168
-4.063646	menundukkan	-0.37300134
-4.020604	hormat	-0.18511845
-4.930209	McCormick	0
-3.6549368	suruh	-0.18710896
-4.6311436	usahakan	0
-3.3248708	cerita	-0.12811096
-3.8257778	kudin	-0.05399066
-4.6311436	fir	0
-4.020604	sesekali	-0.026341837
-4.297782	angka	-0.082316354
-3.7114222	setengah	-0.4236819
-4.226407	inginkan	0
-4.1114273	melainkan	0
-4.4897385	lidahnya	0
-3.6209881	seolah	-0.36116824
-4.1114273	kelu	-0.42312866
-4.297782	melampau	-0.04959277
-4.297782	keluarkan	0
-4.4897385	terpedaya	0
-4.165123	teragak-agak	-0.15915583
-4.226407	terpaku	0
-3.9814463	tubuhku	-0.06746736
-4.165123	seram	-0.17092603
-3.8527641	sejuk	-0.1256328
-4.297782	sesaat	-0.06746736
-3.8003707	mendekati	-0.073291175
-4.7417946	cukup-cukup	-0.24538556
-4.1114273	manalah	-0.13252726
-3.691766	menikmati	-0.17088996
-4.1114273	jus	-0.22207858
-4.930209	buah-buahan	0
-3.945529	sehari	-0.08415749
-4.7417946	padat	0
-3.5461783	penduduk	-0.26634532
-4.930209	gersang	0
-4.4897385	menginjak	-0.06746736
-4.930209	sisinya	-0.024076093
-4.6311436	membelakangi	-0.10558751
-4.020604	rakan-rakan	-0.24898681
-4.930209	serumah	-0.10552585
-3.9814463	kuliah	-0.07872893
-4.226407	meliar	-0.17699286
-4.297782	mau	0
-4.226407	menyakiti	-0.18863189
-3.9814463	tutup	-0.0841541
-4.3832397	aurat	-0.10558751
-3.9123564	kedah	-0.23947611
-4.6311436	meremang	-0.10558751
-3.9814463	bulu	-0.16304411
-4.6311436	roma	-0.10558751
-4.6311436	restu	0
-4.4897385	bersarapan	-0.14737844
-4.297782	dihalang	-0.20192742
-4.930209	dihidapinya	0
-4.7417946	menyukarkan	0
-3.9123564	memaklumkan	-0.0841541
-4.226407	diperlakukan	-0.23205896
-4.4897385	tirinya	-0.0727043
-4.930209	adakalanya	0
-4.930209	memutar	0
-4.930209	mutar	0
-3.5326474	kosong	-0.2375149
-4.063646	siling	-0.092353575
-3.5461783	batu	-0.13708185
-4.930209	banyakkan	0
-3.9814463	rehat	-0.13702917
-4.6311436	menyalurkan	0
-3.5745754	bantuan	-0.12440192
-4.297782	bencana	-0.13498062
-4.020604	menantu	-0.029842898
-3.9814463	kaya	-0.046513397
-4.7417946	dipertemukan	-0.14737844
-3.8527641	kolej	-0.122536555
-4.297782	swasta	-0.04959277
-4.930209	diperintahkan	0
-3.9123564	menjalani	-0.14913583
-3.7320104	hukuman	-0.18806517
-3.945529	penjara	-0.060552046
-4.297782	membawanya	-0.18863189
-4.3832397	sewa	-0.044838056
-4.4897385	upacara	-0.024076093
-4.165123	bengang	-0.13907404
-4.930209	menjulurkan	0
-4.930209	kopinya	0
-4.930209	ditumpanginya	0
-4.6311436	berkelip	-0.08882207
-4.6311436	dewi	0
-4.7417946	salmi	0
-4.930209	mengidam	0
-4.1114273	semak	-0.039210834
-4.7417946	belukar	0
-4.3832397	berambut	-0.09379008
-4.7417946	mencangkung	0
-3.6549368	projek	-0.14289734
-4.297782	pelancongan	-0.12300794
-3.8527641	hotel	-0.11320244
-4.3832397	bintang	-0.06746736
-3.945529	penerbangan	-0.04958975
-3.9814463	pendidikan	-0.028479083
-4.7417946	tuisyen	-0.24538556
-4.165123	percuma	-0.035496276
-3.8257778	membiarkan	-0.05163504
-4.3832397	kecilnya	-0.11293409
-4.1114273	dijaga	-0.04379444
-4.226407	membenci	0
-4.165123	cintakan	-0.18668415
-3.945529	tinggalkan	-0.07696312
-3.945529	balai	-0.4330647
-4.020604	bomba	-0.12921402
-4.6311436	penyelamat	0
-4.7417946	kubu	0
-4.6311436	ayer	-0.14737844
-4.930209	keroh	0
-3.8815389	dihantar	-0.36710897
-4.297782	ibarat	-0.010536068
-4.6311436	mencurah	0
-3.7320104	daun	-0.2769089
-4.7417946	keladi	-0.24538556
-4.930209	bertubi-tubi	0
-4.930209	terhambur	0
-4.7417946	wahab	0
-4.930209	pelanduk	0
-3.7763684	agaknya	-0.17119436
-3.7763684	menyambut	-0.1144781
-4.7417946	huluran	0
-4.6311436	roda	-0.0727043
-3.8257778	tali	-0.22258793
-4.1114273	pinggang	-0.12639455
-4.930209	berdecit	0
-4.930209	bawalah	0
-4.930209	olehmu	0
-4.930209	resmi	0
-4.297782	padi	-0.013593933
-3.6209881	makin	-0.07450324
-4.165123	tunduk	-0.074154034
-4.297782	menolong	0
-4.930209	Dam	0
-4.930209	Biryani	0
-4.930209	well	-0.10552585
-4.930209	known	-0.10552585
-4.7417946	my	-0.019152923
-4.930209	hometown.	-0.10552585
-3.7320104	sewaktu	-0.08455468
-4.3832397	menubuhkan	-0.12300794
-4.6311436	yayasan	-0.14737844
-3.6049597	rahsia	-0.22020873
-4.3832397	belakangnya	-0.085178465
-4.3832397	kirinya	-0.25991935
-4.226407	bantal	-0.112001106
-4.226407	kanannya	-0.046255633
-4.165123	selimut	-0.14803676
-4.226407	kadangkala	-0.019152923
-4.3832397	poket	-0.10558751
-4.7417946	banyak-banyak	-0.05716341
-3.7320104	ucap	-0.106542535
-4.063646	shahrul	-0.021345424
-4.297782	menghargai	0
-4.3832397	mamai	0
-4.063646	berpisah	-0.17232864
-4.4897385	dikuatkan	0
-4.063646	melanggar	0
-4.930209	fitrah	0
-3.5326474	laju	-0.18839751
-4.063646	aduan	-0.029842898
-3.8527641	seri	-0.11608849
-4.930209	jempol	0
-3.368251	petang	-0.44377536
-4.930209	biah	0
-3.3965242	wang	-0.1729251
-4.3832397	bertungkus	-0.55372906
-4.930209	lumus	-0.024076093
-4.226407	mengatasi	-0.011871229
-4.930209	berpamitan	0
-4.297782	ruangan	-0.032424897
-3.945529	biar	-0.084873825
-4.020604	langit	-0.12681143
-3.7114222	rendah	-0.20192742
-4.3832397	gaza	0
-4.7417946	palestin	0
-3.9123564	sememangnya	-0.08265627
-4.4897385	bayangnya	-0.10558751
-3.5326474	bakal	-0.087214194
-4.226407	tunang	-0.04959277
-4.4897385	marina	-0.032407492
-4.1114273	penjuru	-0.03242141
-4.4897385	diberhentikan	-0.18397191
-3.9814463	banglo	-0.26285517
-3.9123564	menuruni	-0.44112
-3.691766	produk	-0.09544285
-4.6311436	inovasi	0
-4.3832397	kreatif	-0.0727043
-4.930209	terpekik	0
-4.020604	dipenuhi	-0.045843653
-4.7417946	teorem	-0.24538556
-4.3832397	matematik	-0.13907404
-4.063646	sekeliling	-0.1840627
-4.930209	kesabarannya	0
-3.7320104	tahap	-0.013601064
-4.930209	maksimum	0
-4.7417946	membujang	0
-3.6729612	perkhidmatan	-0.16584253
-4.226407	memudahkan	-0.082316354
-4.930209	liputan	0
-3.6729612	mudah	-0.1064605
-4.165123	padang	-0.027641892
-4.3832397	sepak	-0.04708287
-4.1114273	asrama	-0.06746736
-3.9123564	emosi	-0.025743335
-4.297782	giat	0
-3.9814463	mengenal	-0.3470173
-4.226407	kongsi	-0.04959277
-4.063646	halal	-0.11659206
-3.8257778	berdepan	-0.25616688
-4.6311436	ketidaktentuan	0
-4.4897385	global	-0.019152923
-4.4897385	gurauan	0
-4.930209	enaknya	0
-3.9123564	setia	-0.12521243
-3.637631	selesai	-0.08966371
-4.7417946	mengungkit	-0.04956567
-4.297782	menuding	-0.39845726
-4.6311436	ditempatkan	-0.33188027
-4.4897385	sumpah	0
-4.930209	silau	0
-4.3832397	asad	0
-4.226407	minit	-0.19533612
-3.8257778	pukul	-0.20842734
-3.7114222	kuasa	-0.07478753
-3.8815389	mengejutkan	-0.11266885
-4.020604	bos	-0.06839683
-4.3832397	melati	0
-3.3965242	benar	-0.20019884
-4.7417946	bongkak	0
-3.6729612	telinga	-0.1717359
-4.020604	teringat	-0.11374051
-3.7320104	peristiwa	-0.18579477
-3.5461783	suspek	-0.121882275
-3.9123564	meneliti	-0.039210834
-4.4897385	kamera	-0.019152923
-4.930209	litar	-0.10552585
-3.945529	tertutup	-0.15704826
-3.6049597	keretanya	-0.15646029
-3.945529	sebulan	-0.07800711
-4.930209	Secret	0
-4.930209	recipe,	0
-4.930209	Umbrose	0
-4.930209	Whisper.	0
-3.945529	ataupun	-0.114117324
-3.8257778	sekitar	-0.06887995
-3.945529	bercerita	-0.11516589
-4.3832397	peranan	-0.04959277
-4.6311436	moyangnya	0
-4.297782	tokoh	0
-4.7417946	penjajah	0
-4.6311436	kemerdekaan	0
-4.7417946	berkasih	-0.24538556
-4.165123	ternyata	-0.04959277
-4.297782	berganjak	-0.14300695
-4.930209	gumam	0
-4.226407	menggaru-garu	-0.37511235
-4.4897385	gatal	-0.015901517
-4.930209	menentu	-0.015901517
-4.930209	berenam	0
-4.063646	bersembang	-0.17583929
-3.945529	kuih	-0.027641892
-4.1114273	nota	-0.20584726
-4.930209	lambak	0
-4.3832397	peduli	-0.12299365
-4.3832397	hidupkan	-0.16785611
-4.930209	Takoyaki,	0
-4.930209	Ratatouille	0
-4.930209	Breadwurst.	0
-3.9814463	sayu	-0.21684818
-3.5461783	bahu	-0.15393361
-4.6311436	tiri	-0.04956567
-4.297782	kesayangan	0
-3.9123564	firdaus	-0.122004546
-4.165123	tegang	-0.10558751
-4.020604	kamar	-0.056206387
-4.930209	gaharu	0
-4.930209	cendana	0
-4.226407	azim	-0.055463504
-4.6311436	membulatkan	0
-3.7536232	memahami	-0.14133987
-4.3832397	bujang	0
-3.9123564	ditolak	-0.049079064
-4.930209	beristeri	0
-3.9123564	menggeleng	-0.13977829
-4.6311436	mencuka	-0.05716341
-4.226407	berganti	-0.08882207
-4.7417946	terkadang	0
-3.9123564	cemburu	-0.15564117
-4.1114273	kebahagiaan	0
-4.6311436	berpanjangan	-0.14737844
-4.6311436	dipertingkatkan	0
-3.9814463	mengadakan	-0.18140951
-4.297782	lawatan	-0.0727043
-3.8003707	kementerian	-0.16829014
-4.226407	pertahanan	-0.05716341
-4.930209	dibimbangkan	0
-3.691766	menanti	-0.1319719
-4.930209	How	-0.08606018
-4.930209	do	-0.10552585
-4.7417946	get	-0.24538556
-4.930209	80	0
-4.930209	Robinson	0
-4.4897385	Road?	-0.456819
-4.930209	zamrud	0
-4.4897385	pengundian	0
-4.930209	pul	0
-4.930209	menyesuaikan	0
-3.3965242	dengannya	-0.41248238
-3.3965242	empat	-0.10858236
-4.4897385	helai	-0.027627133
-4.4897385	puluh	-0.10157098
-3.8527641	melayang	-0.09902788
-3.9123564	sedangkan	-0.09884684
-4.297782	bak	-0.015901517
-3.8815389	jodoh	-0.06366371
-4.930209	Leon	0
-4.930209	Pereira,	0
-4.930209	Kintat,	0
-4.930209	Giam	0
-4.6311436	Tong	0
-4.930209	Do.	0
-3.8257778	dasar	-0.07631281
-4.930209	dit	0
-4.165123	bergema	-0.30706647
-3.8815389	bank	-0.10975115
-3.9814463	simpanan	0
-4.3832397	kredit	-0.06746736
-4.1114273	n	-0.054299016
-4.930209	visa	0
-4.930209	platinum	0
-4.4897385	sejajar	-0.22236599
-3.945529	kan	-0.01685533
-4.7417946	perbankan	0
-3.691766	memenuhi	-0.14466085
-4.930209	segmen	0
-4.4897385	pelanggannya	-0.22236599
-4.165123	kecantikan	-0.04379444
-4.063646	kedatangan	0
-4.020604	perbincangan	-0.06839683
-3.8257778	ajak	-0.08455468
-4.6311436	lintah	-0.14737844
-4.6311436	fasilitator	0
-4.4897385	kaunselor	0
-4.165123	mengutip	0
-3.5895019	dimasukkan	-0.5542507
-4.4897385	bakul	-0.11293409
-3.8257778	pembangunan	-0.041375987
-4.6311436	hakikatnya	-0.019152923
-3.7536232	menyediakan	-0.088838995
-3.637631	bahan	-0.19496664
-4.226407	sambal	-0.10558751
-4.7417946	sotong	-0.14737844
-4.020604	disampaikan	-0.18240997
-4.6311436	shafie	-0.082316354
-3.8003707	perasaannya	-0.14064848
-4.6311436	gusar	0
-4.930209	dimaniskan	0
-4.226407	dipotong	0
-4.297782	melepasi	-0.015901517
-4.1114273	kening	-0.06544604
-4.6311436	bertemankan	0
-3.7536232	pipi	-0.14531031
-3.637631	merasa	-0.036357295
-4.297782	penampilan	0
-4.7417946	salun	0
-4.7417946	tersekat-sekat	0
-4.226407	tangisan	-0.12298362
-4.4897385	dipujuk	0
-4.4897385	peronda	0
-4.930209	plus	0
-4.4897385	termakan	-0.10558751
-4.7417946	hasutan	0
-4.3832397	berkelakuan	0
-4.930209	berhibur	0
-3.8527641	amran	-0.039210834
-3.5895019	tunggu	-0.10004342
-4.930209	rel	0
-4.7417946	teras	-0.14737844
-4.7417946	keenam	0
-4.3832397	mengandungi	0
-3.5461783	janji	-0.19995831
-4.6311436	mengamalkan	0
-4.930209	berintegriti	0
-3.7763684	sekiranya	-0.047714166
-4.3832397	kala	-0.06839683
-4.6311436	melenting	0
-4.1114273	menghadiahkan	-0.25697345
-3.8815389	menampakkan	-0.15830083
-4.020604	gigi	-0.099913366
-4.297782	tersusun	-0.09379008
-4.3832397	menyayangi	-0.06746736
-4.930209	Bashir	0
-4.7417946	Ahmad	0
-4.930209	Malal,	0
-4.930209	Tanbu	0
-4.7417946	Liat	0
-4.930209	Jamit	0
-4.4897385	Singh	-0.10558751
-4.020604	letak	-0.13037083
-3.945529	keliru	-0.277064
-4.063646	terkenal	-0.088838995
-4.6311436	digemari	-0.14737844
-4.063646	dewasa	-0.14913583
-3.9814463	masanya	-0.19670443
-4.297782	memejamkan	-0.26596794
-4.3832397	terlelap	-0.13064848
-4.226407	misi	0
-4.4897385	subuh	-0.034817576
-4.7417946	rasuk	0
-4.930209	derman	0
-4.297782	jelasnya	-0.05716341
-4.3832397	lancar	-0.14913583
-3.9814463	terlihat	-0.053844206
-4.020604	ustaz	-0.032424897
-4.7417946	sidek	0
-4.930209	abon	0
-4.7417946	sudahnya	-0.024076093
-4.6311436	angkara	-0.032407492
-4.930209	metodologi	0
-4.7417946	menggelarkan	0
-4.930209	pencinta	0
-4.6311436	ketinggalan	-0.05716341
-4.6311436	trend	-0.14737844
-4.6311436	binaan	0
-4.930209	usman	-0.004279386
-4.3832397	menghalakan	-0.19634777
-4.930209	senapangnya	0
-4.020604	mengikuti	-0.035496276
-4.4897385	pergerakan	0
-4.165123	askar	-0.06839683
-4.3832397	rejim	-0.18397191
-4.1114273	menjejakkan	-0.57454854
-4.7417946	tepis	0
-4.4897385	berfikiran	0
-4.165123	matang	0
-4.226407	memakan	-0.05716341
-4.930209	hinggakan	0
-4.930209	menyukainya	0
-4.3832397	sekelip	-0.55372906
-3.7763684	kanak	-0.30584368
-3.691766	cikgu	-0.10905444
-4.4897385	diharapkan	-0.013593933
-4.930209	menyinari	0
-4.930209	menggemari	0
-4.7417946	sentuhan	0
-3.4823813	warna	-0.13920705
-4.226407	butir	-0.40599567
-3.9814463	pengantin	-0.082316354
-4.165123	membebel	-0.09710391
-4.4897385	dihalakan	0
-4.930209	gaduhkan	0
-3.691766	bagaimana	-0.10703171
-4.7417946	juadah	0
-4.4897385	berlaukkan	0
-3.5895019	ikan	-0.15687741
-4.7417946	bilis	0
-4.226407	telur	-0.09710391
-4.297782	menghiasi	-0.04959277
-3.6729612	kasut	-0.13157314
-4.7417946	sanggupkah	0
-4.930209	membelinya	0
-4.1114273	simpan	0
-3.8257778	segalanya	-0.1932986
-4.1114273	sebabnya	-0.062267218
-4.165123	memanggilnya	-0.18483153
-3.8003707	memandangnya	-0.48046452
-4.7417946	iparnya	-0.12078379
-4.6311436	didengarnya	-0.10558751
-4.930209	diamalkan	0
-4.930209	melebihkan	0
-4.165123	cabaran	-0.13093597
-3.7763684	tengku	-0.10801671
-4.226407	abdullah	-0.06292228
-3.691766	sultan	-0.12544364
-3.8527641	shah	-0.27075097
-4.297782	menyifatkan	0
-4.7417946	mahfuz	0
-4.4897385	ayahanda	-0.10558751
-3.7763684	baginda	-0.08425164
-4.7417946	jenaka	0
-4.063646	ceramah	0
-4.063646	menyeka	-0.620306
-4.930209	alir	0
-3.7763684	e	-0.039210834
-3.9814463	mengetuk	-0.2799884
-4.165123	lesung	-0.523396
-3.8003707	tentu	-0.062065896
-4.297782	menawan	-0.10558751
-4.1114273	bayangan	0
-4.3832397	ubah	-0.082316354
-4.7417946	terpampang	-0.14737844
-4.226407	berhasrat	-0.20192742
-4.7417946	menyiarkan	0
-4.4897385	kontroversi	0
-3.6049597	walau	-0.13814734
-4.7417946	mengerikan	0
-4.297782	portal	-0.20192742
-4.4897385	membahayakan	0
-4.7417946	semalaman	-0.24538556
-4.3832397	menghampakan	0
-3.9123564	arya	-0.05425388
-3.5461783	lemah	-0.35192573
-4.930209	bermaya	0
-3.9123564	sepupunya	-0.33095956
-4.7417946	betah	-0.049587373
-4.930209	Nicole	0
-4.7417946	Drive,	0
-4.930209	Social	0
-4.7417946	Development	0
-4.930209	Network	0
-4.4897385	Lorong	0
-4.930209	Tanggam	0
-4.7417946	bertubi	-0.24538556
-4.930209	tubi	0
-4.6311436	menyumpah	0
-4.930209	dikeluarkannya	0
-3.1673307	anaknya	-0.48375037
-3.7536232	pulau	-0.31973222
-4.930209	ofis	0
-4.6311436	sepet	0
-4.3832397	bengkak	0
-4.930209	disengat	0
-4.6311436	tebuan	0
-4.297782	celah	-0.029842898
-4.297782	sri	-0.060868584
-4.3832397	kiah	0
-4.3832397	mengangguk-angguk	-0.06746736
-3.6729612	menghadap	-0.08545297
-3.9814463	hidangan	-0.1319719
-4.063646	bersabar	-0.1606775
-4.063646	sopan	-0.1102482
-4.226407	disiplin	-0.09250546
-4.3832397	sudu	-0.11293409
-4.930209	Do	-0.10552585
-4.7417946	know	-0.07664508
-4.7417946	how	-0.24538556
-4.930209	cook	0
-4.930209	dead	0
-4.930209	tamarind	0
-4.930209	chutney?	0
-4.3832397	rela	-0.049587373
-4.4897385	memendam	-0.22236599
-3.7536232	minuman	-0.20115638
-4.6311436	perisa	-0.032407492
-4.7417946	mangga	-0.04956567
-3.4823813	pekerja	-0.1477028
-3.9123564	ganti	-0.21498354
-3.5745754	susah	-0.2708824
-4.4897385	tersentuh	-0.14737844
-3.8257778	hakim	-0.051882923
-4.165123	menjatuhkan	-0.09710391
-4.1114273	menimbulkan	-0.044838056
-4.4897385	keraguan	-0.13498062
-4.6311436	munasabah	-0.0727043
-4.930209	kejauhan	0
-3.3965242	hampir	-0.097738534
-4.063646	terbit	-0.24960172
-4.4897385	membesarkan	-0.06746736
-4.7417946	disusun	-0.032407492
-4.1114273	camelia	-0.049079064
-4.930209	Burma	0
-4.226407	Road,	0
-4.930209	Madrasa	0
-4.930209	al-Arriba	0
-4.930209	al-Ilamiyah,	0
-4.930209	Tanah	0
-4.7417946	Merah	0
-4.930209	Kachir	0
-4.297782	Road.	-0.63291025
-4.3832397	jugalah	-0.05716341
-3.560145	mengeluarkan	-0.11535818
-4.6311436	piring	0
-3.9814463	kabinet	-0.11874086
-4.4897385	menyibuk	0
-4.063646	silap	-0.041375987
-4.930209	sembur	0
-3.8257778	sukan	-0.039210834
-4.7417946	menempelak	0
-4.063646	sosial	-0.0656586
-4.020604	menghilangkan	-0.1898118
-4.4897385	tirai	0
-3.560145	pasangan	-0.282012
-3.3417065	demi	-0.062039316
-4.297782	mencecah	-0.11293409
-4.6311436	gegendang	-0.14737844
-3.8815389	telinganya	-0.21661332
-4.6311436	barangkali	-0.013593933
-3.6549368	dek	-0.091696255
-4.4897385	terkeluar	-0.019152923
-3.8003707	mulutnya	-0.15628904
-4.3832397	ternganga	-0.082316354
-4.297782	loceng	-0.10558065
-3.945529	berbunyi	-0.20602186
-3.9123564	menandakan	-0.113575384
-4.4897385	inggeris	-0.07586843
-4.063646	arif	-0.057147346
-4.020604	kamal	-0.12385147
-4.7417946	terus-terang	0
-4.165123	pengawas	-0.039210834
-4.226407	kebanyakannya	0
-4.063646	memuji	0
-4.165123	tuanku	-0.04959277
-4.3832397	azizah	0
-3.9123564	hadiah	-0.114117324
-4.930209	nivea	0
-3.945529	lif	-0.22813556
-3.637631	akhir	-0.17241342
-4.1114273	langkahnya	-0.08164942
-4.063646	diatur	-0.15209553
-4.7417946	kawanku	-0.24538556
-4.226407	rumput	-0.16006342
-3.8257778	segar	-0.11247619
-4.930209	anjal	0
-4.063646	sebelumnya	-0.3470173
-3.8527641	sunyi	-0.13053113
-4.7417946	mawaddah	0
-4.930209	terpelajar	0
-4.226407	lelakinya	-0.06806855
-4.7417946	alan	0
-4.165123	didapati	0
-4.6311436	pemenang	0
-4.3832397	majoriti	0
-4.226407	penganjur	-0.085178465
-4.930209	96623509	0
-4.7417946	anggur	0
-4.7417946	datanglah	0
-3.945529	kemarahan	-0.07178225
-4.6311436	jaafar	-0.032407492
-4.165123	menamatkan	0
-4.7417946	kemurkaan	-0.24538556
-4.165123	peluh	-0.13067397
-4.7417946	meleleh	-0.04956567
-4.063646	kenduri	-0.10558748
-4.7417946	kesyukuran	0
-4.3832397	menghapuskan	0
-4.7417946	label	0
-4.6311436	rintisan	-0.14737844
-4.7417946	bertaraf	0
-4.3832397	internasional	-0.16785611
-4.297782	rujukan	-0.05716341
-4.1114273	gagang	-0.28555048
-4.930209	melekapkan	0
-4.4897385	guruh	-0.10558751
-4.7417946	berdentum	-0.14737844
-4.7417946	jalanan	0
-4.6311436	menonong	-0.14737844
-4.3832397	meninggalkannya	-0.12300794
-4.4897385	menariknya	0
-4.297782	dilakukannya	-0.09803164
-4.020604	menuntut	-0.057147346
-3.7114222	universiti	-0.12267621
-3.8003707	putra	-0.11108838
-4.7417946	serdang	0
-4.930209	pernafasannya	0
-4.3832397	seharusnya	0
-4.6311436	pelantikan	0
-4.226407	perlis	-0.04959277
-4.930209	seratus	0
-4.297782	peratus	-0.12300794
-3.8527641	menghulurkan	-0.16051388
-4.4897385	lama-kelamaan	0
-4.6311436	terpengaruh	-0.14737844
-3.8815389	umar	-0.02019542
-4.930209	Selena	0
-4.930209	Tan,	0
-4.930209	Subhas	0
-4.930209	Anandan	0
-4.6311436	Richard	0
-4.930209	Corriden.	0
-4.3832397	kerja-kerja	0
-4.6311436	pembersihan	0
-4.930209	peneman	0
-3.9123564	melemparkan	-0.46540403
-3.945529	pandangannya	-0.16287202
-4.297782	orang-orang	-0.24703738
-4.7417946	kenamaan	0
-4.4897385	bela	-0.082316354
-3.8257778	menang	-0.088430256
-4.930209	menyembunyi	0
-4.1114273	jarak	-0.027641892
-4.930209	membubuh	0
-4.4897385	titis	0
-4.6311436	urut	0
-4.930209	aromaterapi	0
-4.297782	kakiku	-0.06746736
-4.297782	balkoni	0
-4.020604	fatihah	-0.117261134
-4.297782	tercegat	-0.31398416
-4.6311436	menjalinkan	-0.33188027
-4.7417946	tampan	0
-4.930209	dijangkau	0
-4.6311436	teman-temannya	0
-4.6311436	keselesaan	0
-3.6729612	mewah	-0.17486827
-4.7417946	oren	-0.015901517
-3.7763684	gelas	-0.26481983
-4.7417946	berkaki	0
-3.8815389	perasan	-0.09235354
-3.7763684	muzik	-0.17232864
-3.9814463	video	-0.16712207
-3.9814463	memasukkan	-0.05716341
-4.020604	bab	0
-4.7417946	menempuh	0
-3.8257778	menapak	-0.26857972
-3.691766	terhenti	-0.21666516
-3.9814463	susuk	-0.5480674
-4.7417946	hubungannya	-0.24538556
-3.9123564	kamil	-0.035496276
-4.165123	berakhir	-0.20924881
-4.6311436	kecurian	0
-4.4897385	disebut	-0.0727043
-4.4897385	sampailah	0
-4.6311436	henti-henti	0
-3.9123564	ucapan	-0.11129076
-4.7417946	tahniah	0
-4.6311436	mencampuri	-0.14737844
-4.6311436	terbabas	0
-4.297782	longkang	-0.06746736
-3.8257778	mengelak	-0.083448425
-4.4897385	dididik	0
-4.930209	wangian	0
-4.6311436	garpu	-0.14737844
-4.3832397	pertanyaannya	-0.105575174
-4.6311436	ulasan	0
-4.1114273	berhati	-0.33291778
-3.6549368	rasanya	-0.120058216
-4.930209	Sunsetville?	0
-4.930209	hadiah-hadiah	0
-4.4897385	malangnya	-0.039210834
-4.930209	lahar	0
-4.930209	menggelodak	0
-4.165123	parkir	-0.071372524
-3.7763684	berdekatan	-0.3100572
-4.1114273	menyandarkan	-0.20924881
-4.7417946	kusyen	0
-4.7417946	garu	-0.24538556
-4.063646	siapkan	0
-4.6311436	terserlah	0
-4.7417946	tender	0
-4.930209	labuan	0
-3.7114222	bayi	-0.13861446
-4.020604	dijalankan	-0.046513397
-4.7417946	does	-0.10552585
-4.7417946	it	-0.24538556
-4.930209	Fah	0
-4.7417946	Wah	0
-4.930209	Monastery	0
-4.3832397	by	-0.31927598
-4.930209	taxi?	-0.10552585
-3.8527641	batang	-0.1932986
-4.063646	pihaknya	-0.09295153
-4.165123	memorandum	-0.16006342
-4.3832397	bantahan	-0.082316354
-4.226407	menghadiri	-0.05716341
-4.226407	aidilfitri	0
-4.297782	kedutaan	-0.10558751
-4.6311436	dianggotai	0
-4.226407	unit	-0.04959277
-3.7114222	kerjasama	-0.09361871
-3.8527641	awam	-0.13445641
-3.9123564	pengarah	-0.08025358
-4.063646	felda	-0.117261134
-4.6311436	jamil	-0.14737844
-4.1114273	begnya	-0.06746736
-4.226407	mengorak	-0.69985706
-3.9814463	dijadikan	-0.08711301
-4.7417946	perkataan-perkataan	0
-3.9814463	baik-baik	-0.21976414
-4.165123	suis	-0.09710391
-3.7763684	kakaknya	-0.28356013
-4.930209	K7	0
-4.930209	Zun,	0
-4.930209	Kung	0
-4.930209	Roy	0
-4.930209	Glenn	0
-4.930209	Goey.	0
-3.8815389	dikatakan	-0.0726412
-4.930209	sumbangannya	0
-3.8527641	amelia	-0.2078622
-4.4897385	takkanlah	-0.06746736
-4.297782	titisan	-0.22990443
-4.930209	soalnya	-0.040397577
-4.4897385	bincangkan	0
-4.930209	T1	0
-4.930209	Basement	0
-4.930209	Oxford	0
-4.4897385	Street	-0.10558751
-4.930209	Emeraldie	0
-4.226407	Park	-0.05716341
-4.6311436	seadanya	-0.14737844
-4.7417946	fi	0
-3.945529	barulah	-0.1932986
-4.226407	pinta	0
-4.226407	sufi	-0.05716341
-4.3832397	lama-lama	0
-4.3832397	meluat	0
-4.1114273	kemesraan	-0.04379444
-4.930209	T7251360Z	0
-4.930209	20th	0
-4.7417946	January	0
-4.930209	1942.	0
-4.6311436	mendalami	-0.14737844
-3.8815389	watak	-0.082316354
-4.1114273	berpeluk	-0.42312866
-4.4897385	tunggalnya	-0.16315362
-4.6311436	kemerah-merahan	-0.14737844
-4.7417946	mengeruhkan	-0.24538556
-4.7417946	niatnya	-0.027627133
-4.297782	mencipta	0
-4.7417946	keriangan	0
-4.6311436	yam	0
-3.5745754	masak	-0.12075117
-3.8257778	cina	-0.12608892
-4.7417946	perokok	0
-3.9814463	tandas	-0.18153326
-3.8815389	maria	-0.11785078
-3.945529	ketakutan	-0.21866944
-4.020604	berkali-kali	-0.27486652
-4.020604	novel	-0.12354132
-4.3832397	mempercayai	-0.04959277
-3.6729612	fikiran	-0.124804705
-4.930209	Yakisoba,	0
-4.930209	Kyo	0
-4.930209	Buffy	0
-4.6311436	teks	-0.082316354
-4.7417946	dibacakan	0
-4.165123	naib	-0.35484314
-3.691766	presiden	-0.13006611
-4.6311436	eksekutif	0
-4.930209	eksplorasi	0
-4.297782	pengeluaran	0
-4.4897385	petronas	-0.22236599
-4.7417946	mempertimbangkan	0
-4.6311436	catuan	-0.14737844
-4.3832397	pekerjanya	-0.16785611
-4.1114273	seakan-akan	-0.062267218
-4.6311436	berebut	0
-4.7417946	ditentukan	0
-4.4897385	rentung	0
-4.063646	diriku	-0.17232864
-3.6049597	kenderaan	-0.20436628
-4.7417946	belakangku	-0.24538556
-4.297782	dibincangkan	-0.09710391
-4.6311436	haha	0
-3.9123564	seronok	-0.034403607
-4.930209	menyiap	0
-4.165123	rimas	-0.13017659
-3.9814463	leher	-0.1886364
-3.6049597	kakinya	-0.09308719
-4.6311436	tertancap	-0.14737844
-3.8527641	jejaka	-0.32370028
-4.3832397	banduan	0
-4.6311436	pengaruh	0
-4.930209	gantung	0
-4.4897385	terhadapnya	-0.16785611
-4.7417946	dikaji	-0.24538556
-4.063646	mencium	-0.10878247
-3.9123564	dahi	-0.12151274
-4.1114273	khusus	-0.04379444
-4.165123	sejumlah	-0.04959277
-4.020604	aksi	-0.032424897
-4.297782	demonstrasi	-0.06746736
-4.7417946	dinilai	0
-4.297782	demokrasi	-0.085178465
-4.297782	tumbuh	-0.010536068
-4.3832397	sejurus	-0.12002484
-3.6729612	mukanya	-0.15039653
-4.020604	tawaran	-0.062267218
-4.020604	mengusap	-0.029842898
-4.6311436	perutku	0
-4.165123	menunjuk	-0.26401278
-4.020604	sebatang	-0.38066262
-4.930209	merendang	0
-4.297782	barunya	-0.39845726
-4.930209	kuatan	0
-4.7417946	datangnya	-0.0727043
-4.930209	berganggu	0
-3.8527641	bagus	-0.101944715
-4.020604	takdir	-0.16437633
-4.063646	pelancong	-0.032424897
-4.4897385	cukuplah	0
-4.7417946	seiringan	-0.04956567
-4.165123	tewas	-0.13907404
-4.4897385	tersimpan	-0.15682653
-4.4897385	ikan-ikan	-0.10558751
-4.1114273	ira	-0.15656696
-4.6311436	penyebab	-0.032407492
-4.6311436	sebal	-0.024076093
-4.3832397	ingatanku	-0.086099476
-4.930209	Does	0
-4.930209	Unadon	0
-4.4897385	taste	-0.456819
-4.930209	good?	-0.10552585
-4.7417946	kertas-kertas	-0.24538556
-4.930209	bersusun	0
-4.226407	wad	-0.05716341
-4.063646	bertudung	-0.1945997
-4.930209	litup	0
-4.4897385	mastura	-0.082316354
-3.945529	tuala	-0.23418935
-4.226407	ponteng	-0.12300794
-4.226407	bebel	-0.09250546
-4.226407	tumpah	-0.14831333
-3.9814463	mengira	-0.005895054
-4.930209	degup	0
-3.8815389	jantung	-0.08366977
-3.519525	seakan	-0.17314264
-3.945529	berbicara	-0.109000444
-4.4897385	meyakinkan	0
-4.297782	kamarul	0
-4.063646	makna	-0.07668831
-4.020604	tika	-0.22326104
-4.930209	sisiku	-0.019152923
-4.930209	cilik	0
-4.297782	mengunyah	-0.12300794
-4.020604	menelan	-0.24494673
-3.9123564	kebanyakan	-0.032853317
-3.8527641	darinya	-0.5159994
-3.8003707	pandai	-0.062131684
-4.226407	semenjak	0
-3.8527641	bercinta	-0.21058775
-4.7417946	penipu	0
-4.4897385	tegar	0
-3.8527641	jumlah	-0.02019542
-4.226407	hutang	0
-4.6311436	selaras	-0.33188027
-4.6311436	mengutamakan	0
-3.9814463	pinjaman	-0.029842898
-4.930209	kecairan	0
-4.7417946	zaid	0
-4.297782	pantang	-0.05716341
-4.020604	belanja	-0.10985272
-4.297782	pejabatnya	-0.14016797
-4.930209	embong	0
-4.7417946	pemuzik	-0.04956567
-4.6311436	bertenggek	0
-4.4897385	terapung	-0.22236599
-4.930209	berhajat	0
-3.7536232	sepenuhnya	-0.19844095
-3.5326474	duit	-0.14676146
-4.7417946	mengambilnya	0
-4.226407	tasik	-0.09250546
-4.930209	takungan	0
-4.930209	Resh	0
-4.930209	Behari	0
-4.930209	Bose,	0
-4.930209	Tamwai	0
-4.930209	Jia	0
-4.7417946	Leong	0
-4.930209	Moon	0
-4.297782	sengih	-0.06745481
-4.3832397	kerang	-0.31927598
-4.4897385	berlengah	-0.13064848
-4.7417946	menyeluk	0
-3.945529	sampul	-0.46164173
-4.226407	bertolak	-0.13907404
-4.7417946	ansur	0
-4.7417946	perilaku	0
-4.226407	menjejaskan	0
-4.7417946	reputasi	0
-4.165123	imej	-0.011871229
-4.226407	ladang	-0.13907404
-3.7114222	menjerit	-0.09915042
-4.3832397	mirah	0
-4.3832397	kalau-kalau	-0.06746736
-4.6311436	daeng	0
-4.3832397	bicaranya	0
-4.6311436	subsidi	0
-4.930209	pakej	0
-4.4897385	perisian	0
-3.9814463	sederhana	-0.09318111
-4.930209	bermulanya	-0.10552585
-4.4897385	syria	-0.06746736
-3.9123564	berikutan	0
-4.930209	pergolakan	0
-4.930209	meruncing	0
-4.7417946	sekala	-0.024076093
-3.6549368	d	-0.40275258
-4.165123	j	-0.1102482
-4.7417946	terjelepuk	0
-3.4063728	la	-0.17148682
-4.165123	wani	0
-3.7320104	selamba	-0.20549561
-3.637631	bergegas	-0.42960557
-3.7114222	dilaporkan	-0.08019548
-4.3832397	thailand	-0.06746736
-3.945529	lanjut	-0.15600716
-3.9814463	barang-barang	-0.23189065
-4.930209	daki	0
-4.7417946	dicampakkan	0
-4.930209	Makato	0
-4.930209	sukiyaki.	0
-4.226407	hakikat	-0.19435552
-3.9814463	hannah	-0.052690916
-4.7417946	jib	0
-3.5745754	rapat	-0.20001201
-4.6311436	menghancurkan	0
-4.297782	istilah	0
-4.930209	kuli	0
-3.8815389	dialah	-0.27600464
-3.9814463	peti	-0.21520323
-4.226407	alas	-0.20192742
-4.020604	kesemua	-0.039210834
-4.6311436	reman	-0.0727043
-3.7536232	mulai	-0.066315636
-4.165123	menghormati	0
-4.6311436	moral	0
-4.930209	prinsip-prinsip	0
-4.930209	sekular	0
-4.297782	mematuhi	-0.22377336
-4.7417946	kebersihan	0
-3.8815389	dibenarkan	-0.14882517
-4.930209	anyam	0
-4.930209	genit	0
-4.7417946	kebaya	0
-4.930209	nyonya	0
-4.020604	seluar	-0.08835976
-4.6311436	kelabu	0
-4.930209	pamit	-0.10552585
-4.020604	liza	-0.14608817
-4.7417946	memerintahkan	0
-3.8257778	diserahkan	-0.6822021
-3.6729612	jabatan	-0.17243248
-4.3832397	imigresen	-0.10558751
-4.930209	pengusiran	0
-4.6311436	asalnya	-0.33188027
-4.165123	susulan	-0.011871229
-4.930209	sebulat	0
-4.6311436	panel	0
-4.226407	persekutuan	-0.06806855
-4.930209	tercongok	0
-3.6549368	sekadar	-0.05983271
-4.930209	pungut	0
-4.297782	!	-0.63291025
-4.930209	will	-0.10552585
-4.7417946	walk	-0.24538556
-4.930209	Prince	0
-4.930209	George's	0
-4.6311436	Park?	-0.33188027
-4.1114273	mengejar	0
-4.7417946	berempah	0
-4.6311436	ceraikan	-0.082316354
-4.930209	enggak	0
-3.945529	bayar	-0.1423768
-4.6311436	hati-hati	-0.14737844
-4.226407	mohammad	-0.06746736
-4.165123	menggeleng-gelengkan	-0.42086983
-3.8257778	wujud	-0.07908044
-4.930209	kamus	0
-4.6311436	mensia-siakan	-0.14737844
-4.6311436	satu-persatu	0
-4.4897385	laci	-0.06745481
-3.9814463	telefonnya	-0.18639235
-4.063646	dahinya	-0.08415749
-4.3832397	sebaris	-0.105575174
-4.7417946	giginya	-0.14737844
-4.3832397	teratur	-0.105575174
-3.560145	kemas	-0.19834934
-4.4897385	usahanya	-0.082316354
-3.7763684	dilihat	-0.06812314
-4.3832397	sia-sia	-0.19634777
-4.7417946	kaget	0
-4.4897385	lesu	0
-4.4897385	ketibaan	0
-4.1114273	jangka	-0.12298362
-4.4897385	ikutkan	-0.14737844
-4.297782	menampar	0
-4.930209	zuhur	0
-4.6311436	tingkatan	-0.19634777
-4.6311436	mengembangkan	0
-4.6311436	menguntungkan	0
-4.4897385	berumah	-0.456819
-4.930209	berturut	0
-4.4897385	lenanya	-0.22236599
-3.4944131	kak	-0.24998777
-4.297782	ngah	-0.046513397
-4.930209	silih	-0.10552585
-4.063646	teknologi	-0.032424897
-4.226407	bahaya	-0.04379444
-4.6311436	perhatiannya	-0.14737844
-3.7763684	hidupnya	-0.116378166
-4.930209	beransur-ansur	0
-4.6311436	sahut	0
-3.9123564	bertentangan	-0.19631997
-4.4897385	menyenangkan	-0.16785611
-4.3832397	padan	-0.13498062
-4.7417946	banyaklah	0
-4.165123	buku-buku	-0.09710391
-3.9814463	menunduk	-0.1411353
-4.930209	It	-0.10552585
-4.930209	faster	-0.10552585
-4.6311436	bus	-0.193598
-4.930209	Mangla	0
-4.930209	Vihara	0
-4.4897385	Buddhist	0
-4.297782	Temple.	-0.63291025
-3.7536232	disebabkan	-0.015908204
-4.7417946	tersengguk-sengguk	0
-4.1114273	tertidur	-0.24637587
-4.4897385	direkodkan	0
-4.1114273	keterangan	-0.099913366
-4.930209	laginya	0
-4.7417946	mengasingkan	0
-4.3832397	suri	0
-4.226407	melompat	-0.17092603
-3.8527641	tawa	-0.19269897
-4.7417946	zulkarnain	0
-3.5067875	beritahu	-0.09142008
-3.9814463	inilah	-0.12892771
-4.6311436	tampar	0
-3.4373345	semuanya	-0.12982866
-4.4897385	berucap	-0.16785611
-4.3832397	ramah	-0.082316354
-3.7763684	industri	-0.05649743
-4.930209	hospitaliti	0
-3.7114222	pegawai	-0.06559773
-4.165123	mara	-0.04379444
-4.226407	telan	-0.055463504
-4.3832397	liur	-0.05425388
-4.165123	perkarangan	-0.2078622
-4.930209	Kway	0
-4.7417946	Teow	0
-4.930209	Go	0
-4.930209	Reing	0
-3.9123564	murid	-0.072698936
-4.7417946	kepuasan	-0.14737844
-4.4897385	psikologi	0
-4.4897385	berfungsi	-0.10558751
-4.020604	baring	-0.277064
-3.7114222	kerjanya	-0.23337467
-4.930209	klip	0
-4.297782	bubur	-0.015901517
-4.297782	menawarkan	-0.13498062
-4.930209	ramuan	0
-4.226407	koma	0
-4.165123	sekian	-0.37511235
-4.297782	ditatap	0
-4.297782	dikongsi	-0.13498062
-3.8257778	ditutup	-0.041375987
-4.7417946	jagalah	0
-4.7417946	berlangsungnya	0
-4.6311436	pertunjukan	0
-4.930209	gempak	0
-4.7417946	paris	0
-4.4897385	membahagiakan	0
-4.226407	sejauh	-0.17733143
-4.020604	setuju	-0.17859629
-4.930209	Kwe	0
-4.7417946	dada	0
-4.930209	rau	0
-4.930209	sanum	0
-4.7417946	en	0
-4.7417946	ipo	0
-4.930209	kentang.	0
-4.3832397	cemerlang	-0.027627133
-4.7417946	menengah	-0.04091957
-4.1114273	memperoleh	-0.04379444
-4.930209	biasiswa	0
-4.7417946	puting	-0.24538556
-4.930209	beliung	0
-4.165123	wilayah	-0.116270974
-4.226407	kesejahteraan	-0.009470887
-4.297782	bertiga	-0.028700236
-4.4897385	melabuh	-0.16785611
-4.7417946	senanglah	0
-4.4897385	kedudukannya	0
-3.7536232	berusaha	-0.15549205
-4.7417946	merakam	0
-4.6311436	adegan	0
-3.8527641	berdoa	-0.17399682
-4.226407	rotan	-0.085178465
-4.3832397	mekar	-0.082316354
-4.4897385	diucapkan	-0.22990443
-4.930209	Tomasik	0
-4.930209	Boulevard?	0
-4.297782	menyelak	-0.12300794
-4.6311436	dakapan	0
-4.1114273	hangat	-0.008601306
-3.8257778	roti	-0.14018013
-4.063646	bakar	-0.061035387
-4.6311436	mengabaikan	0
-4.020604	buta	-0.109000444
-4.1114273	meskipun	-0.029842898
-4.020604	bekalan	-0.17232864
-3.4823813	bekas	-0.14981554
-3.8257778	majikannya	-0.35820627
-4.297782	bersembunyi	-0.25991935
-4.6311436	automotif	0
-4.297782	strategik	-0.12300794
-4.930209	perkilangan	0
-4.930209	Abu	0
-4.930209	Talib,	0
-4.930209	Barbary	0
-4.6311436	Walk	-0.33188027
-4.930209	Rivervale	0
-4.930209	Link.	0
-4.020604	menyapa	-0.10034259
-4.7417946	pamitan	0
-4.7417946	menebal	-0.24538556
-4.7417946	seminit	-0.04956567
-4.020604	kaku	-0.2987749
-3.8257778	botol	-0.16979712
-3.8527641	ubat	-0.071265906
-4.6311436	batuk	0
-4.226407	dirawat	-0.49931085
-4.226407	stabil	-0.085178465
-3.8257778	penumpang	-0.2293583
-3.8815389	menganggap	-0.021345424
-4.4897385	lumrah	0
-4.6311436	g	-0.032407492
-4.165123	akur	-0.2817995
-4.7417946	aerobik	0
-4.297782	maghrib	-0.13560015
-4.7417946	dara	-0.015901517
-4.7417946	tragedi	0
-4.6311436	kemewahan	-0.14737844
-4.165123	pemandangan	-0.1482564
-4.6311436	debaran	0
-4.020604	kian	0
-4.930209	memuncak	0
-4.4897385	furqan	0
-4.226407	terlampau	-0.085178465
-4.165123	terhutang	-0.757849
-4.6311436	like	-0.05716341
-4.930209	Rajma	0
-4.297782	very	-0.43941015
-4.930209	much.	-0.10552585
-3.8527641	penat	-0.07391527
-4.6311436	puasa	-0.14737844
-3.4592743	teman	-0.27869508
-4.930209	kesenangan	0
-4.4897385	kesusahan	-0.10558751
-4.4897385	tersayang	-0.082316354
-4.7417946	Are	-0.04956567
-4.930209	there	-0.10552585
-4.7417946	food	-0.10552585
-4.930209	courts	-0.10552585
-4.7417946	or	-0.04956567
-4.930209	restaurants	-0.10552585
-4.930209	Bethesda,	0
-4.7417946	Church,	0
-4.3832397	Bukit	0
-4.930209	Arang?	0
-4.165123	gunakan	-0.04379444
-4.930209	tertusuk	0
-3.8257778	parlimen	-0.069557466
-4.930209	sena	0
-4.1114273	berpura-pura	-0.035496276
-4.930209	mengering	0
-4.6311436	diikutkan	-0.18397191
-4.7417946	berteleku	-0.24538556
